{"layer1_weight": [[-0.19016586244106293, 0.5282573699951172], [-0.071066714823246, -0.4377938508987427], [-0.5496511459350586, 0.36568552255630493], [-0.35311874747276306, 0.03571051359176636], [-0.3746805787086487, 0.06804672628641129], [0.7302297949790955, -0.10849345475435257], [-0.7172667384147644, -0.506364107131958], [0.2515258491039276, 0.7446497678756714], [-0.44032469391822815, -0.4188815951347351], [-0.05136888101696968, -0.47323817014694214], [-0.07029882818460464, 0.7960309386253357], [-0.41123637557029724, -0.0932171493768692], [0.5182198882102966, -0.16655953228473663], [0.5539082288742065, 0.22565093636512756], [-0.6977828741073608, 0.011350763030350208], [0.23012608289718628, 0.029532887041568756], [-0.5485949516296387, 0.071015365421772], [-0.22527973353862762, 0.263374388217926], [0.2518063187599182, 0.6255385875701904], [-0.22974367439746857, 0.7068419456481934], [0.532802939414978, 0.647860586643219], [-0.3942059576511383, 0.7004725933074951], [0.6477617621421814, -0.6188775897026062], [0.47856900095939636, 0.24554507434368134], [-0.28742948174476624, -0.8394646048545837], [0.6214063167572021, -0.5844608545303345], [0.3964535593986511, 0.34641286730766296], [0.21034155786037445, 0.36265215277671814], [0.502703070640564, 0.3799360990524292], [0.22268277406692505, -0.6305357217788696], [0.46665990352630615, -0.2379777878522873], [0.38080650568008423, -0.7417771816253662], [0.4735370874404907, 0.25153836607933044], [-0.42329418659210205, -0.5610562562942505], [0.001523130340501666, 0.4391216039657593], [0.2099253237247467, -0.025295738130807877], [-0.19394803047180176, -0.357509583234787], [-0.5240000486373901, 0.45318323373794556], [-0.0169675350189209, -0.3626534342765808], [0.3707430958747864, 0.7702400088310242], [-0.6579626798629761, 0.49073347449302673], [0.2754867374897003, 0.4645783305168152], [0.8347102403640747, 0.2594931423664093], [-0.3261641263961792, 0.40186625719070435], [0.24095502495765686, -0.08313943445682526], [-0.713392972946167, -0.31489190459251404], [0.09347495436668396, -0.6126931309700012], [-0.07543659210205078, -0.5644077658653259], [0.5535523891448975, -0.16744275391101837], [0.07250428199768066, -0.4022623598575592], [-0.298705130815506, 0.3625519573688507], [0.4711757004261017, -0.11015672981739044], [-0.4901728630065918, 0.34959256649017334], [0.5954586863517761, 0.18906688690185547], [0.31841596961021423, 0.3663384020328522], [0.3215102255344391, 0.7429618835449219], [0.669461727142334, -0.4704909026622772], [0.4391873776912689, 0.6812750101089478], [-0.4340641498565674, -0.6067280173301697], [-0.5208302140235901, -0.2227858155965805], [0.748309850692749, -0.0800819993019104], [-0.4123772382736206, 0.4027504324913025], [0.675864577293396, -0.26050350069999695], [0.5236991047859192, 0.3334285020828247]], "layer1_bias": [-0.05310353264212608, -0.5556967854499817, 0.6623787879943848, -0.5855861902236938, -0.4593398869037628, 0.6063472628593445, 0.4114447832107544, -0.3428334891796112, 0.7844998240470886, 0.6311123967170715, -0.24849660694599152, -0.15297831594944, -0.47894206643104553, -0.09707434475421906, -0.37693530321121216, -0.4052685797214508, -0.4808677136898041, 0.21815572679042816, 0.6117879748344421, 0.7405335903167725, -0.6533274054527283, -0.4013836085796356, 0.39373981952667236, 0.4050045907497406, -0.10007434338331223, -0.2190544456243515, -0.5311627984046936, 0.24491062760353088, 0.010571316815912724, 0.7819526791572571, 0.3919343948364258, 0.012124365195631981, 0.28793561458587646, 0.22564253211021423, 0.44041258096694946, 0.6664140224456787, 0.6099206209182739, -0.06174004077911377, -0.5109906792640686, 0.3397822678089142, 0.596659779548645, 0.14462502300739288, -0.022360851988196373, 0.13779723644256592, 0.44908061623573303, -0.5505965352058411, 0.2412930727005005, 0.5973105430603027, -0.4780416190624237, 0.1575796902179718, -0.06802297383546829, -0.4120591878890991, 0.46067386865615845, -0.6383563280105591, 0.8059919476509094, -0.10316555947065353, -0.17117978632450104, 0.026094216853380203, 0.49643242359161377, 0.08301839232444763, -0.6151284575462341, -0.6286948323249817, 0.5372543931007385, -0.09750405699014664], "layer2_weight": [[0.03915134817361832, 0.13491781055927277, 0.016839608550071716, 0.4526849091053009, 0.2384365200996399, 0.07137738168239594, -0.15076182782649994, 0.06332948058843613, -0.15000423789024353, -0.0889693945646286, 0.09786368906497955, 0.18705832958221436, -0.09203533828258514, -0.08293767273426056, 0.036513254046440125, 0.05707539618015289, 0.2627122402191162, 0.07264255732297897, 0.11741751432418823, -0.022348860278725624, 0.08003361523151398, 0.1743689775466919, 0.05552661418914795, 0.08205796778202057, 0.12346624583005905, 0.03270872309803963, 0.07719302177429199, -0.0034973565489053726, 0.1178121417760849, 0.0070707546547055244, 0.10587363690137863, 0.07668323814868927, 0.17129212617874146, 0.2651292383670807, 0.07014312595129013, -0.07372037321329117, -0.16178978979587555, 0.1915101855993271, 0.16930952668190002, -0.006480016745626926, -0.028572488576173782, 0.06600985676050186, 0.09772204607725143, -0.0019933704752475023, 0.02181118354201317, 0.15628427267074585, 0.09343966096639633, -0.0935421884059906, -0.03476796671748161, 0.08753795176744461, 0.19380690157413483, 0.008351671509444714, 0.027151579037308693, -0.10444115102291107, 0.02959376946091652, 0.12242313474416733, 0.0007866411469876766, 0.18057554960250854, -0.12832669913768768, 0.09006017446517944, 0.032223016023635864, 0.2564632296562195, 0.07834195345640182, 0.05308152362704277], [0.016074275597929955, -0.08524008840322495, 0.17601755261421204, -0.3409423828125, -0.2099246382713318, -0.16119226813316345, 0.11555632948875427, 0.35612210631370544, 0.15627533197402954, 0.22647987306118011, -0.04906076565384865, -0.0026542467530816793, -0.1442578285932541, -0.20031830668449402, 0.06318981945514679, -0.012724310159683228, -0.05640680342912674, -0.029015008360147476, 0.015201704576611519, 0.22169539332389832, 0.10135255753993988, -0.1245986670255661, -0.08753157407045364, -0.06099192798137665, 0.0567614920437336, -0.06539113819599152, -0.0784459263086319, -0.16858355700969696, 0.026710838079452515, -0.06744243949651718, 0.07861233502626419, -0.11205846071243286, -0.10320045799016953, 0.17315946519374847, 0.05897326022386551, 0.2202983796596527, 0.23554575443267822, -0.14827628433704376, -0.06816745549440384, -0.10595168173313141, 0.07678789645433426, -0.19024164974689484, -0.13514891266822815, -0.009159291163086891, -0.11988142132759094, -0.00324245635420084, 0.16060739755630493, 0.1611814647912979, -0.24205811321735382, 0.1721261441707611, -0.019619006663560867, -0.07938414067029953, 0.1887759417295456, 0.05652214586734772, 0.01682877354323864, 0.00328836846165359, -0.006401153281331062, -0.13651978969573975, 0.08235066384077072, -0.2351372241973877, -0.2670039236545563, -0.29908373951911926, -0.07490523159503937, -0.04310205206274986], [-0.063360795378685, -0.11838965862989426, 0.08717302232980728, 0.32236605882644653, 0.08797293901443481, 0.09967990964651108, -0.026885362342000008, -0.18199504911899567, 0.07571027427911758, -0.09563159942626953, 0.11318544298410416, -0.1291290670633316, 0.10282731056213379, 0.06689809262752533, -0.018746811896562576, -0.014989882707595825, 0.11013435572385788, 0.0426175594329834, -0.011845609173178673, 0.0344981849193573, 0.05670428276062012, -0.09546107798814774, -0.0827256292104721, 0.017283838242292404, -0.0638326033949852, -0.034170955419540405, 0.04858425259590149, 0.013406949117779732, 0.04866625741124153, 0.11477769911289215, 0.00318122748285532, -0.011629818938672543, -0.11372755467891693, 0.10797697305679321, -0.013874920085072517, -0.037918902933597565, -0.04760834574699402, 0.0587041899561882, -0.0349961556494236, 0.08167764544487, 0.1353396475315094, 0.011795023456215858, -0.11692027002573013, 0.06713628768920898, 0.01264205202460289, 0.06541720777750015, -0.01481933705508709, 0.11045946925878525, 0.03656936436891556, -0.004114399664103985, -0.006967378780245781, 0.051968544721603394, -0.026600023731589317, -0.11985717713832855, -0.10352521389722824, -0.009577798657119274, 0.010176465846598148, -0.18207530677318573, -0.06735730171203613, 0.0982409343123436, -0.05045194923877716, 0.06720642000436783, -0.07909618318080902, -0.15997637808322906], [0.06426059454679489, -0.15579092502593994, 0.11956186592578888, 0.32976654171943665, 0.11564753949642181, -0.04152815788984299, 0.1825130432844162, -0.04649141803383827, -0.03471354395151138, -6.215277244336903e-05, -0.090288907289505, -0.08613487333059311, -0.1532168835401535, 0.1586167961359024, 0.05679263919591904, 0.02856382727622986, 0.024132557213306427, -0.0661793127655983, 0.06579717248678207, 0.05578448623418808, -0.04965001344680786, 0.09513100981712341, 0.07348128408193588, -0.14691011607646942, 0.022089393809437752, 0.05230990797281265, -0.07011249661445618, 0.09872685372829437, -0.14202053844928741, 0.0451778769493103, 0.06818004697561264, -0.014193044975399971, 0.007047346327453852, 0.06526415795087814, 0.0028334432281553745, -0.10259376466274261, 0.028698408976197243, 0.0547773502767086, 0.03172457590699196, 0.11302801221609116, 0.00687444256618619, -0.0414695106446743, -0.11461558938026428, 0.03712824359536171, 0.06773270666599274, 0.14608146250247955, 0.02109900303184986, -0.10441979020833969, 0.08838121592998505, -0.1436779648065567, 0.03224502503871918, -0.15857744216918945, 0.02236242964863777, 0.03604382276535034, -0.13168373703956604, 0.05119868367910385, -0.09431841224431992, 0.10074742883443832, -0.018850069493055344, 0.10335743427276611, 0.008099626749753952, -0.019076231867074966, -0.03747591748833656, 0.026671305298805237], [-0.19520391523838043, 0.09924767911434174, 0.224979966878891, 0.3230254650115967, 0.1843421310186386, -8.273096318589523e-05, 0.21914315223693848, -0.44508591294288635, 0.1719720959663391, 0.03686964139342308, -0.10439778119325638, -0.1831231266260147, 0.04647434130311012, -0.1604577600955963, -0.18276499211788177, 0.10719311237335205, -0.06855591386556625, 0.12045181542634964, -0.0692778006196022, 0.11345259845256805, -0.005927219986915588, -0.135321706533432, -0.0252483319491148, -0.020754531025886536, 0.057115476578474045, -0.11939533054828644, -0.0867910385131836, -0.058881212025880814, -0.30813515186309814, 0.11962249875068665, -0.1265312284231186, -0.002257709624245763, -0.15437233448028564, -0.09085509926080704, 0.10999166965484619, -0.03210113197565079, 0.16780000925064087, 0.004539845511317253, 0.23467645049095154, 0.06245417147874832, 0.20736733078956604, 0.0842340812087059, -0.3026137351989746, 0.058968961238861084, 0.05786694958806038, -0.03678230568766594, -0.01957857236266136, -0.11587619036436081, 0.13354066014289856, -0.13927775621414185, -0.20445434749126434, -0.03411947563290596, 0.19160251319408417, -0.10441665351390839, -0.08780214190483093, -0.07790596783161163, -0.07237744331359863, -0.16632768511772156, 0.1557101458311081, 0.04586223512887955, 0.09805163741111755, 0.06483298540115356, -0.11966320872306824, -0.27942806482315063], [-0.0952899158000946, -0.18695782124996185, 0.06838580965995789, -0.07641659677028656, -0.1400241106748581, 0.0339789055287838, 0.16288037598133087, -0.07653523981571198, 0.0692562535405159, 0.0580080971121788, -0.2405226081609726, 0.15474070608615875, -0.3359611928462982, -0.37258675694465637, -0.04657251760363579, -0.036690905690193176, 0.0750570148229599, 0.023837804794311523, -0.1587681621313095, -0.07261001318693161, -0.048575565218925476, 0.018367476761341095, 0.10883074998855591, -0.06818263232707977, 0.19477996230125427, -0.09789146482944489, -0.12133090198040009, -0.14054110646247864, -0.14755702018737793, 0.148361936211586, -0.03834940865635872, -0.10315468162298203, 0.07872499525547028, 0.1452091634273529, -0.1536865532398224, 0.18545912206172943, 0.1281762719154358, -0.15268069505691528, -0.2986625134944916, -0.10869736969470978, -0.08123069256544113, -0.28071895241737366, -0.18617412447929382, -0.04570223391056061, 0.06997787207365036, -0.14080631732940674, -0.060719892382621765, 0.04045486822724342, -0.13446906208992004, 0.09249065071344376, -0.15939803421497345, -0.2802545130252838, 0.12667106091976166, 0.1244037002325058, 0.10746116936206818, -0.07762148231267929, 0.034897226840257645, -0.06134093180298805, 0.20706413686275482, -0.5220678448677063, -0.22089707851409912, 0.025083087384700775, 0.03899262100458145, -0.4683220386505127], [0.08729752898216248, 0.046417415142059326, -0.004185930825769901, 0.03184784948825836, -0.05317801237106323, -0.025958992540836334, 0.002407159423455596, -0.019377563148736954, -0.013719993643462658, -0.051757268607616425, -0.07030405104160309, 0.10449426621198654, 0.11024990677833557, -0.06856928765773773, -0.03360365703701973, 0.003836125135421753, 0.08250068873167038, 0.010857285000383854, 0.08609086275100708, 0.053432803601026535, 0.11809970438480377, -0.008021715097129345, 0.05006793513894081, 0.0810759961605072, -0.053160231560468674, -0.05029655992984772, 0.021308735013008118, -0.11448805779218674, -0.010196267627179623, -0.08524125814437866, -0.0346602164208889, 0.0075685083866119385, 0.029732313007116318, 0.07641807943582535, 0.047642018646001816, -0.0039264243096113205, -0.08077181130647659, 0.023739777505397797, -0.059119872748851776, -0.0836188942193985, -0.029910851269960403, -0.04186801239848137, -0.07425273209810257, 0.049217160791158676, -0.034122731536626816, 0.005591534078121185, -0.012133833952248096, -0.06876683235168457, -0.04348219931125641, 0.07210658490657806, -0.08327768743038177, -0.12242794036865234, -0.10642828047275543, -0.07692959904670715, -0.0989769771695137, -0.12419784069061279, 0.11953508853912354, -0.07239814102649689, -0.0714588612318039, -0.10573499649763107, -0.08229617774486542, -0.12419620901346207, -0.12802843749523163, 0.04458753019571304], [0.14804573357105255, 0.0690324604511261, 0.06606936454772949, -0.009410456754267216, 0.031004445627331734, -0.03557595610618591, -0.014193673618137836, 0.3236406445503235, 0.08668476343154907, 0.015624850057065487, -0.06480425596237183, 0.036346856504678726, 0.10515425354242325, 0.08965303003787994, -0.004047840368002653, -0.0408746600151062, 0.06538192182779312, -0.032937753945589066, -0.009255706332623959, 0.12886802852153778, -0.12033979594707489, -0.08707956224679947, 0.0324416346848011, 0.06551890075206757, -0.009134897030889988, -0.04540744423866272, 0.00581011176109314, 0.01180484239012003, -0.08966848999261856, 0.006133951246738434, 0.07434209436178207, 0.024916768074035645, -0.05535915493965149, 0.04259857162833214, -0.037237510085105896, -0.0671396404504776, -0.019141845405101776, -0.06178615242242813, -0.14062942564487457, -0.07628738880157471, 0.13914978504180908, -0.0596415176987648, 0.07799914479255676, -0.08560863137245178, 0.05189547315239906, -0.0607411228120327, 0.0373617522418499, -0.10682129859924316, -0.12307906150817871, 0.02847134694457054, 0.07654876261949539, -0.09330284595489502, -0.015303264372050762, 0.06633737683296204, -0.07063058763742447, -0.015845099464058876, -0.06908304989337921, 0.04710545390844345, -0.12585505843162537, 0.07902675122022629, 0.00665626022964716, 0.13107283413410187, 0.030794760212302208, -0.026734119281172752], [-0.07156287133693695, -0.19642771780490875, -0.003134313505142927, -0.3192019462585449, -0.1596689224243164, -0.06294391304254532, 0.05995079502463341, 0.0673869326710701, 0.08319969475269318, 0.13209472596645355, 0.017431944608688354, -0.04980047792196274, 0.08602355420589447, -0.002160846721380949, -0.04210598021745682, -0.11632025241851807, 0.013107437640428543, -0.02905418910086155, 0.10935962200164795, 0.14184702932834625, 0.025575190782546997, -0.06757692992687225, -0.034498654305934906, 0.09731879830360413, -0.03321833908557892, 0.07730858027935028, -0.015046194195747375, 0.016099270433187485, -0.1280307173728943, -0.08741773664951324, -0.0065072583965957165, 0.09846537560224533, 0.04033831134438515, -0.07389118522405624, 0.07418549060821533, 0.11234208196401596, 0.05576425790786743, 0.07226423174142838, -0.10160668939352036, -0.12759889662265778, 0.12534333765506744, 0.01613234356045723, -0.08771643042564392, 0.028297964483499527, -0.027668848633766174, 0.10845290869474411, 0.03312370926141739, -0.012085565365850925, 0.02250785194337368, -0.06712173670530319, 0.035187773406505585, 0.046546123921871185, 0.08558882027864456, -0.042196303606033325, 0.07754623144865036, 0.01750965230166912, -0.08903469145298004, -0.18979206681251526, 0.04322466254234314, -0.07195645570755005, -0.05536707118153572, 0.0325528122484684, 0.05270928516983986, -0.16580544412136078], [-0.06126883625984192, 0.013788314536213875, -0.07680942863225937, -0.3194675147533417, -0.29204392433166504, 0.015374026261270046, 0.04050762206315994, -0.24680015444755554, 0.017667202278971672, 0.0680212453007698, -0.22647228837013245, -0.4399760961532593, 0.07793927937746048, 0.17938430607318878, -0.14810681343078613, 0.0005586445331573486, -0.10557416826486588, 0.11812205612659454, 0.15852464735507965, -0.033109355717897415, -0.11231778562068939, -0.18359148502349854, 0.13396163284778595, 0.13190382719039917, -0.07622799277305603, 0.025476302951574326, -0.0015894025564193726, -0.03618944436311722, 0.029689157381653786, 0.11508388072252274, -0.07460099458694458, 0.0021755460184067488, -0.032145556062459946, 0.09123340249061584, -0.015727706253528595, -0.06251190602779388, 0.022963857278227806, -0.004199514165520668, 0.20895688235759735, 0.13517877459526062, 0.015264756046235561, 0.019217826426029205, 0.08269549161195755, 0.07782666385173798, 0.05624956265091896, -0.17463141679763794, 0.08581630140542984, -0.08594359457492828, 0.11242431402206421, 0.018671885132789612, 0.09905172884464264, 0.08877638727426529, 0.18905982375144958, 0.06521682441234589, -0.06187088042497635, -0.2189985066652298, 0.043768931180238724, -0.04211033508181572, 0.09064822643995285, 0.15984663367271423, 0.12445957213640213, -0.21063123643398285, 0.0445663258433342, 0.028615029528737068], [-0.20752663910388947, -0.20363876223564148, -0.02345789596438408, 0.008944157510995865, -0.015083749778568745, 0.17182695865631104, 0.12597104907035828, -0.47631487250328064, 0.18382145464420319, 0.19936038553714752, -0.3875408172607422, 0.07235729694366455, -0.20770412683486938, -0.33548617362976074, -0.03454946354031563, 0.09757764637470245, 0.08840883523225784, -0.25474637746810913, 0.0599665530025959, -0.19061385095119476, 0.05350489914417267, -0.08255841583013535, -0.056243378669023514, -0.028158335015177727, 0.08745285868644714, -0.09936592727899551, 0.1000029593706131, 0.0594257153570652, -0.1807742565870285, 0.09737173467874527, -0.010379843413829803, 0.07543440163135529, -0.021391769871115685, 0.1943879872560501, -0.1921902894973755, 0.06609255820512772, 0.22082066535949707, -0.1972484141588211, -0.4366404414176941, -0.1654307246208191, -0.18885163962841034, -0.060035742819309235, -0.0805276408791542, -0.1677650809288025, 0.055902328342199326, 0.05914551764726639, 0.1721191108226776, -0.036626942455768585, -0.2034020721912384, 0.12067454308271408, -0.1272481381893158, -0.30976665019989014, -0.10205113887786865, -0.003908798098564148, 0.12021468579769135, 0.3063739538192749, -0.08304522931575775, 0.2217869758605957, 0.23700548708438873, -0.39971253275871277, -0.4004059135913849, -0.10064256936311722, -0.05205835402011871, -0.37491413950920105], [-0.046125348657369614, 0.1401793509721756, -0.169441357254982, 0.018212178722023964, -0.11859174817800522, 0.1473856419324875, 0.1393667608499527, 0.08667521178722382, 0.003579795826226473, 0.059007417410612106, -0.1220158115029335, -0.06978954374790192, 0.018125247210264206, 0.3221287727355957, 0.04014516994357109, 0.05074127018451691, 0.0013489185366779566, -0.16246555745601654, -0.12868215143680573, 0.01620917022228241, -0.02428784966468811, 0.022259067744016647, 0.017802271991968155, -0.014777122996747494, 0.1599438339471817, -0.07749472558498383, 0.11212892830371857, 0.04049118980765343, 0.14324885606765747, -0.02097935415804386, -0.02619413658976555, 0.07745308429002762, -0.07645222544670105, 0.09466001391410828, -0.10013487935066223, -0.038224801421165466, -0.07576306909322739, -0.14343732595443726, 0.1279653012752533, -0.03686266764998436, -0.10069368779659271, 0.10357512533664703, 0.014015760272741318, -0.0616774745285511, 0.14426955580711365, -0.12391045689582825, 0.1522456407546997, -0.05991741642355919, 0.008979585953056812, -0.03296121582388878, -0.03679612651467323, 0.15938760340213776, -0.09075169265270233, -0.0698443055152893, -0.12489970028400421, 0.22366026043891907, 0.06878573447465897, 0.1283818930387497, 0.08337031304836273, 0.08890706300735474, 0.04809384047985077, -0.05906352028250694, 0.06166649982333183, 0.1357523798942566], [-0.08463632315397263, -0.14976200461387634, -0.03816225007176399, -0.3247860372066498, -0.2549968659877777, -0.03463627025485039, 0.13924720883369446, 0.017073988914489746, 0.1058952808380127, 0.14426879584789276, -0.011407092213630676, -0.128238245844841, 0.014566338621079922, -0.23634026944637299, 0.11258571594953537, -0.04133711755275726, -0.06760524213314056, -0.0638640820980072, 0.07394866645336151, 0.15916572511196136, -0.10267983376979828, -0.12964417040348053, -0.0782807245850563, 0.00484002148732543, -0.2036542296409607, -0.13152876496315002, 0.10305832326412201, 0.001220445497892797, -0.06175757199525833, 0.10585744678974152, -0.036629971116781235, -0.0018257382325828075, 0.07759682089090347, 0.05935055762529373, 0.025464540347456932, 0.0009865006431937218, 0.01071624830365181, 0.0784376710653305, -0.21730922162532806, -0.07236826419830322, 0.16845467686653137, -0.12947997450828552, -0.1700153797864914, -0.09860847890377045, 0.12018352746963501, -0.014188910834491253, 0.0922049731016159, 0.061196424067020416, -0.08422043174505234, 0.1156957820057869, -0.10373494774103165, -0.008902930654585361, -0.06797073781490326, 0.008170530200004578, 0.15276667475700378, -0.15237858891487122, 0.0661291852593422, -0.21143047511577606, 0.21517565846443176, 0.015297162346541882, 0.049613822251558304, -0.07390625774860382, -0.035575952380895615, -0.1349286437034607], [0.1864689141511917, 0.09686403721570969, -0.04926714673638344, 0.28817057609558105, 0.3227230906486511, 0.037044741213321686, -0.09782007336616516, -0.05313799902796745, -0.10839802771806717, -0.0767536535859108, 0.08654069155454636, 0.0779179260134697, 0.034285545349121094, 0.02555505745112896, 0.11298874765634537, 0.00868089497089386, 0.19154764711856842, 0.02719227969646454, 0.041408274322748184, 0.03669414669275284, 0.008433416485786438, 0.11653799563646317, 0.12173125892877579, 0.001540483208373189, 0.04303419217467308, 0.09070634841918945, -0.0878392904996872, 0.05694826692342758, -0.005377918481826782, 0.06311236321926117, 0.034528832882642746, -0.025273973122239113, -0.08284487575292587, -0.07250840961933136, -0.027346234768629074, 0.13490897417068481, -0.05117010325193405, 0.20967048406600952, 0.21590465307235718, 0.07526080310344696, -0.02798629365861416, 0.2099156379699707, -0.06949018687009811, 0.026910502463579178, 0.017334923148155212, 0.09109563380479813, 0.050550736486911774, -0.09231553226709366, 0.04525817930698395, 0.12575171887874603, 0.057942792773246765, -0.03554863855242729, -0.11558150500059128, -0.06688570976257324, -0.00861740205436945, 0.012422689236700535, 0.15315237641334534, 0.0789860263466835, 0.018525566905736923, 0.07234503328800201, 0.1357528418302536, 0.15752384066581726, -0.010679259896278381, 0.17063194513320923], [-0.1403527855873108, 0.007722565904259682, 0.09369107335805893, -0.2289663851261139, -0.20474539697170258, -0.1674990952014923, 0.20377054810523987, -0.11281079053878784, 0.08020028471946716, 0.13967755436897278, -0.04879790171980858, -0.19883598387241364, 0.026580533012747765, -0.16366693377494812, -0.11171657592058182, -0.12024438381195068, -0.10969354957342148, 0.04352840781211853, -0.004801531322300434, 0.12050747871398926, 0.09859026968479156, -0.1938791126012802, -0.05682889372110367, -0.1410304605960846, -0.2017396241426468, -0.02838987670838833, 0.005415007472038269, -0.04959004372358322, -0.10611101984977722, 0.1231430172920227, -0.081079863011837, 0.047319475561380386, 0.023129016160964966, -0.09455858170986176, -0.09769035875797272, 0.05477157235145569, 0.20208485424518585, -0.23980394005775452, 0.042317457497119904, -0.21469512581825256, 0.16286788880825043, -0.1048952117562294, -0.20506031811237335, 0.034611303359270096, -0.10533187538385391, -0.0558670237660408, 0.0607256218791008, 0.10969346016645432, -0.07703570276498795, 0.06329376250505447, -0.02376280352473259, -0.11402177810668945, 0.052388258278369904, -0.023472383618354797, 0.11188850551843643, -0.2158217430114746, -0.04974118620157242, -0.284577876329422, 0.18786686658859253, -0.12731362879276276, -0.18763741850852966, -0.15102443099021912, -0.12609538435935974, -0.11015138030052185], [0.0020289868116378784, 0.032436519861221313, -0.10621470212936401, -0.0174715518951416, 0.061653122305870056, 0.10687147080898285, -0.09424547851085663, -0.04969443380832672, 0.024306684732437134, -0.06507298350334167, 0.012622460722923279, -0.121707022190094, -0.07749585807323456, 0.016696184873580933, -0.0846390575170517, 0.07057085633277893, 0.09340892732143402, 0.08864441514015198, 0.10573334991931915, 0.05282725393772125, -0.04240323603153229, -0.044782280921936035, 0.008115515112876892, -0.05019138753414154, -0.007519260048866272, 0.02617962658405304, 0.037399619817733765, -0.07258526980876923, 0.08782355487346649, -0.07885955274105072, -0.0032297074794769287, -0.00024200975894927979, -0.12249962985515594, -0.10053740441799164, 0.06603030860424042, 0.10490971803665161, -0.022563651204109192, -0.11516359448432922, 0.006346955895423889, -0.03729599714279175, -0.06746034324169159, -0.019556120038032532, -0.0812453031539917, 0.03798820078372955, -0.06872443854808807, -0.015060678124427795, -0.12129521369934082, 0.12058994174003601, -0.08915045857429504, 0.08886252343654633, -0.07976046204566956, 0.016498029232025146, -0.1235826313495636, -0.0637846440076828, -0.00542999804019928, -0.11132654547691345, 0.002886250615119934, 0.021055683493614197, -0.0712139904499054, 0.04515726864337921, 0.10457627475261688, -0.0050698816776275635, -0.04682518541812897, 0.07974350452423096], [-0.042883727699518204, 0.3323940634727478, 0.07753509283065796, 0.5362064838409424, 0.41135790944099426, 0.007189642172306776, -0.19283431768417358, 0.009349123574793339, 0.02629212848842144, -0.25232142210006714, 0.19954903423786163, 0.0903720110654831, 0.28248026967048645, 0.3019004762172699, -0.09602558612823486, 0.08124411106109619, 0.08380569517612457, -0.05929435044527054, 0.04925687983632088, 0.05147624760866165, 0.11061500012874603, 0.11660555750131607, 0.09677226841449738, -0.040256936103105545, 0.06256747990846634, 0.10353104025125504, -0.01930159330368042, 0.15470410883426666, 0.21794287860393524, -0.1427687406539917, 0.012025454081594944, 0.009306022897362709, 0.18171212077140808, -0.058489203453063965, -0.058481208980083466, -0.03989867866039276, -0.1529545933008194, -0.07047881931066513, 0.30194807052612305, 0.2013847976922989, 0.08935989439487457, 0.0811610296368599, 0.29150164127349854, -0.006774728652089834, 0.09049622714519501, 0.014241226948797703, -0.12153365463018417, -0.15948261320590973, 0.23349180817604065, -0.01865907944738865, 0.04905536025762558, 0.1965303122997284, 0.09571008384227753, 0.02872009575366974, -0.02928779274225235, -0.020035520195961, 0.1984264999628067, 0.0020010045263916254, -0.13926619291305542, 0.12033551186323166, 0.383180171251297, 0.15558330714702606, 0.0971895307302475, 0.12438087910413742], [0.048408545553684235, -0.32273009419441223, 0.15411153435707092, -0.4469296336174011, -0.32551294565200806, -0.07305213809013367, 0.1730595827102661, 0.3176369071006775, 0.10259933769702911, 0.14429177343845367, 0.028113026171922684, 0.13826297223567963, -0.04413892328739166, -0.229173481464386, 0.006218411028385162, 0.10051523149013519, 0.0931229367852211, 0.042754027992486954, 0.05405201017856598, 0.10996845364570618, 0.049000054597854614, 0.12348354607820511, -0.003579041687771678, 0.04694914072751999, -0.02435137890279293, -0.05040999501943588, 0.03409886360168457, -0.07959641516208649, 0.07896245270967484, -0.10719329863786697, 0.06871312111616135, 0.03331157565116882, 0.09924836456775665, 0.26765719056129456, 0.13420848548412323, -0.027693910524249077, 0.13404788076877594, 0.008356506936252117, -0.26222720742225647, -0.11655159294605255, 0.026554906740784645, -0.08630436658859253, -0.03513401001691818, 0.04868227615952492, 0.07077091932296753, 0.14732755720615387, -0.07494786381721497, 0.09160196781158447, -0.06974627077579498, 0.10085713118314743, 0.04934585839509964, -0.20224909484386444, 0.15159441530704498, -0.08873966336250305, 0.03239201754331589, 0.07226080447435379, -0.10453400760889053, 0.10642939805984497, 0.1608196496963501, 0.042806122452020645, -0.0825202688574791, -0.0589340403676033, -0.06241605058312416, -0.1783525049686432], [0.0006803704891353846, 0.13568903505802155, 0.10655565559864044, -0.10543486475944519, -0.31643372774124146, 0.04734915494918823, -0.12791520357131958, -0.2804792821407318, -0.14030587673187256, -0.11668188124895096, 0.010601461865007877, -0.1153935045003891, 0.25973114371299744, 0.3522305190563202, -0.04429475963115692, -0.08358076214790344, -0.13857783377170563, -0.011059919372200966, -0.0004720762080978602, 0.030093586072325706, 0.012586608529090881, -0.10314900428056717, -0.09581562876701355, -0.061725959181785583, 0.08792007714509964, 0.035874441266059875, 0.08818027377128601, 0.06950192153453827, 0.17488625645637512, 0.047723349183797836, 0.08468428254127502, 0.11921408027410507, 0.16305699944496155, 0.05827787518501282, 0.05632444843649864, 0.07983021438121796, 0.03865916281938553, -0.03231881186366081, 0.11790843307971954, 0.15005993843078613, 0.04905351996421814, 0.17632314562797546, 0.0884244292974472, 0.05088648945093155, 0.006569862365722656, -0.06918567419052124, -0.13124817609786987, 0.013104895129799843, 0.08330218493938446, -0.04100246727466583, -0.11101838946342468, 0.1246180459856987, 0.11666978895664215, 0.10858635604381561, -0.10420092195272446, 0.07826374471187592, 0.01445076335221529, 0.12595178186893463, -0.20070727169513702, 0.13078291714191437, 0.32747235894203186, -0.09747634083032608, -0.07701115310192108, 0.1548634171485901], [0.009299231693148613, 0.02877424843609333, 0.04219283536076546, 0.34247660636901855, 0.26211050152778625, -0.2138058990240097, 0.06961478292942047, 0.26393863558769226, 0.04406672716140747, -0.0325002558529377, 0.10384296625852585, 0.09742652624845505, -0.03871980682015419, 0.061397504061460495, 0.13001425564289093, -0.1060706377029419, 0.15707086026668549, 0.07631919533014297, -0.04072290658950806, 0.12363260984420776, -0.08961135149002075, -0.06303682178258896, 0.03177037090063095, -0.11343761533498764, 0.3295600712299347, 0.031231964007019997, -0.1049301028251648, -0.060640521347522736, 0.06697165966033936, -0.08963718265295029, -0.08481580018997192, -0.002959052799269557, -0.10264653712511063, 0.06045329198241234, -0.03856615722179413, -0.15587405860424042, 0.0026197959668934345, 0.13849367201328278, 0.0685967281460762, 0.06682092696428299, 0.13229666650295258, -0.048060063272714615, 0.08679348975419998, 0.11933780461549759, -0.1990613341331482, 0.19299426674842834, -0.11834864318370819, -0.08256258070468903, -0.03945384919643402, 0.001361763570457697, -0.0729265883564949, 0.04497511312365532, 0.08985958993434906, 0.010151296854019165, 0.05564195662736893, 0.041133731603622437, -0.07335047423839569, 0.13076908886432648, 0.031903866678476334, 0.16719761490821838, -0.03307633101940155, 0.2013295441865921, -0.04476478695869446, 0.34289443492889404], [0.1042884960770607, 0.04725015163421631, 0.11380055546760559, -0.3524636924266815, -0.3414308428764343, 0.12114331126213074, 0.08064443618059158, -0.354699045419693, -0.08280836790800095, 0.14477109909057617, -0.09564494341611862, -0.32936277985572815, 0.16127032041549683, 0.38009825348854065, -0.11299742013216019, -0.005534946918487549, -0.18802028894424438, 0.11348095536231995, 0.0829416960477829, -0.07200729846954346, 0.06488478183746338, -0.10798582434654236, 0.1378655880689621, 0.027381418272852898, 0.04793195798993111, -0.04214375093579292, -0.05554373562335968, -0.1062287911772728, -0.10231576859951019, 0.03675788268446922, -0.04640030115842819, 0.0038890037685632706, 0.10974966734647751, -0.1647729128599167, 0.011955326423048973, 0.07736986875534058, 0.15558306872844696, 0.11997287720441818, 0.12701936066150665, 0.04280195012688637, -0.023384520784020424, -0.0036531921941787004, -0.03807322308421135, 0.0665961354970932, -0.04111501947045326, 0.0006355809746310115, 0.12316488474607468, -0.0749938115477562, 0.21463072299957275, 0.02933160401880741, -0.08060657978057861, 0.2715059518814087, 0.044824328273534775, 0.09097865223884583, 0.023915180936455727, -0.09332230687141418, 0.1427445113658905, -0.13319401443004608, -0.05353164300322533, -0.051290363073349, 0.3356070816516876, -0.24924196302890778, 0.10611739754676819, -0.00220689014531672], [-0.0387868694961071, 0.08117552101612091, -0.07136984169483185, 0.023309875279664993, 0.0314292311668396, -0.07935811579227448, -0.08434592932462692, -0.05055929720401764, -0.05888801068067551, 0.013970473781228065, -0.07100063562393188, -0.08279633522033691, -0.1262882947921753, -0.09084565937519073, -0.044889990240335464, -0.03309871256351471, 0.03616219758987427, -0.02379786968231201, -0.0676553025841713, -0.09709469974040985, 0.04403248429298401, -0.05694565549492836, -0.07184751331806183, 0.08179645240306854, 0.07317253202199936, -0.00823100097477436, 0.009158030152320862, -0.004210345912724733, -0.05919823795557022, 0.0385264977812767, -0.009060844779014587, 0.0031678390223532915, 0.06900565326213837, -0.08225701004266739, 0.036562107503414154, 0.09222465008497238, 0.001161778112873435, -0.010687419213354588, -0.1064717099070549, -0.10965351015329361, 0.09317582100629807, 0.07534321397542953, -0.10516570508480072, -0.08629586547613144, -0.08536626398563385, 0.09347039461135864, -0.03315766155719757, 0.02343679592013359, 0.06949405372142792, -0.11043386161327362, -0.030712364241480827, -0.07560352981090546, 0.06193988397717476, -0.08427827060222626, 0.05701184272766113, 0.08033943921327591, 0.03947318717837334, -0.021309586241841316, 0.007251718081533909, 0.11554169654846191, 0.032491013407707214, 0.05492725968360901, 0.020692365244030952, 0.05778059363365173], [0.23120784759521484, -0.06653551012277603, -0.07447458058595657, 0.32290104031562805, 0.254820853471756, 0.07933209091424942, -0.08398101478815079, 0.16944493353366852, -0.1096491813659668, 0.09970790147781372, 0.14486974477767944, 0.34436511993408203, -0.0731889009475708, -0.24245861172676086, 0.12845098972320557, 0.09959039092063904, 0.25604143738746643, 0.031181128695607185, 0.04725772887468338, -0.08534937351942062, 0.11210209131240845, 0.07570483535528183, 0.06520720571279526, 0.06285776942968369, -0.00960959866642952, 0.14137068390846252, -0.04618197679519653, 0.1335676908493042, 0.0636562779545784, -0.03775332495570183, -0.002124215941876173, 0.05295088514685631, -0.07587429136037827, 0.1512911170721054, 0.06280743330717087, 0.03484266996383667, 0.11501073092222214, 0.051510799676179886, -0.0986146554350853, 0.13003133237361908, -0.14916041493415833, 0.192747101187706, 0.07297979295253754, 0.12867125868797302, 0.1336820125579834, 0.22072206437587738, 0.1254296451807022, -0.08931619673967361, 0.09927526861429214, 0.04549390450119972, 0.19069981575012207, -0.0879208892583847, -0.05839996039867401, 0.12166422605514526, 0.08278918266296387, 0.10269365459680557, 0.012556557543575764, 0.10714709013700485, -0.04365934804081917, -0.18889856338500977, -0.2070653885602951, 0.15414971113204956, -0.07285767048597336, 0.11246325075626373], [-0.0042402478866279125, -0.04918096587061882, -0.07943159341812134, -0.042093560099601746, -0.03359203040599823, 0.014460054226219654, 0.251233845949173, -0.015307975001633167, 0.14271822571754456, 0.05338726192712784, -0.0012523506302386522, 0.039522137492895126, -0.2722242474555969, -0.37480416893959045, 0.06831816583871841, 0.11619380116462708, -0.07439251244068146, -0.08032721281051636, -0.1681603193283081, -0.14961019158363342, 0.09019947052001953, -0.11098186671733856, -0.04047417640686035, 0.07420063018798828, 0.11118470877408981, -0.11824006587266922, 0.01298302412033081, -0.011964987963438034, -0.1375311315059662, 0.0645890012383461, 0.05290000140666962, 0.014117198996245861, 0.08421526104211807, 0.10971968621015549, -0.17199161648750305, 0.13657352328300476, 0.05766914784908295, -0.0036525677423924208, -0.1809556931257248, -0.27406391501426697, 0.01606680266559124, -0.05679679661989212, -0.1059911847114563, 0.007198933511972427, 0.05611952766776085, -0.11412978917360306, 0.1471523493528366, -0.04155409708619118, -0.14327853918075562, -0.021143876016139984, -0.09425386786460876, -0.15580976009368896, -0.0539640411734581, 0.025653555989265442, 0.17357826232910156, -0.1648058295249939, -0.030076725408434868, -0.22221335768699646, 0.03573743999004364, -0.13463036715984344, -0.27264952659606934, -0.13690553605556488, -0.042037397623062134, -0.42037367820739746], [0.12737905979156494, 0.06804271787405014, -0.14945025742053986, 0.380685031414032, 0.18874436616897583, 0.13715553283691406, -0.13411986827850342, 0.14348341524600983, -0.04852205887436867, -0.256242573261261, 0.18361565470695496, 0.17872509360313416, 0.1307138204574585, 0.137719988822937, 0.20630784332752228, -0.06286439299583435, 0.05227947235107422, 0.24006350338459015, 0.22157259285449982, 0.09101762622594833, 0.09962403774261475, 0.12160054594278336, -0.018076691776514053, 0.12265525013208389, 0.2448926866054535, 0.08902076631784439, -0.11902029812335968, 0.28168541193008423, 0.07754360884428024, -0.0688437670469284, 0.0039027207531034946, -0.07044894993305206, 0.17777834832668304, 0.24217407405376434, 0.06904598325490952, -0.11817820370197296, -0.1044187918305397, 0.02626197040081024, 0.19869288802146912, 0.2554264962673187, 0.06359954923391342, 0.1725374460220337, 0.27220389246940613, 0.20612452924251556, 0.12320145964622498, 0.23699720203876495, -0.16283246874809265, -0.2626098394393921, 0.03834487125277519, -0.07755348086357117, 0.004836337640881538, 0.1398644894361496, 0.053399670869112015, 0.006377771496772766, 0.08064869046211243, 0.28500625491142273, -0.009470280259847641, 0.06625114381313324, -0.13807982206344604, 0.20602117478847504, 0.023641403764486313, 0.27826836705207825, 0.03419121727347374, 0.24937772750854492], [-0.008491960354149342, 0.20279818773269653, 0.04833392798900604, -0.03081042692065239, 0.021513091400265694, 0.10525951534509659, 0.007764749228954315, -0.4301987588405609, 0.004458011128008366, 0.032860975712537766, -0.16898825764656067, -0.39209747314453125, 0.07084678113460541, 0.32906442880630493, -0.41421252489089966, -0.10438810288906097, -0.16626763343811035, 0.13941830396652222, 0.11700816452503204, 0.2169562131166458, 0.041579172015190125, -0.06561741977930069, 0.14730070531368256, 0.02468656376004219, 0.045679181814193726, -0.03888509050011635, -0.06621530652046204, 0.18097014725208282, -0.13193951547145844, 0.07979244738817215, -0.08975891023874283, -0.01354392059147358, -0.04335014894604683, -0.047101106494665146, 0.025453627109527588, -0.06907997280359268, -0.01525836531072855, 0.01499210949987173, 0.3403412103652954, 0.18259453773498535, -0.011258048005402088, -0.0036897987592965364, 0.18469716608524323, 0.17138586938381195, 0.016990575939416885, -0.3138141334056854, -0.04521695896983147, -0.03604152053594589, 0.21906764805316925, 0.08316827565431595, -0.013808601535856724, 0.24281668663024902, -0.03264520317316055, 0.11503395438194275, 0.0873575210571289, -0.20602081716060638, 0.053991060703992844, -0.1932881623506546, -0.015546939335763454, 0.16888387501239777, 0.2291802167892456, -0.07395151257514954, 0.032326679676771164, -0.07073706388473511], [-0.03435352444648743, 0.11293334513902664, -0.03299237787723541, 0.04559106007218361, -0.07374601066112518, -0.008629953488707542, -0.011092212051153183, -0.01584400236606598, -0.051216185092926025, 0.06194784492254257, -0.042009636759757996, 0.014810964465141296, -0.05786077678203583, 0.07607704401016235, -0.056355178356170654, 0.02035313844680786, 0.03206898272037506, -0.11605913937091827, -0.048574984073638916, -0.04246121644973755, 0.029878512024879456, 0.09524090588092804, 0.059817731380462646, -0.08164431154727936, -0.11795356124639511, -0.043573711067438126, -0.009027481079101562, 0.048029690980911255, -0.036609649658203125, 0.04591842740774155, -0.11307378858327866, -0.12563340365886688, -0.11923439055681229, 0.07761692255735397, 0.038096919655799866, -0.05797819793224335, 0.07856742292642593, 0.07096704840660095, 0.08379274606704712, 0.11116036772727966, 0.026192083954811096, -0.12030051648616791, -0.05329448729753494, -0.06888134777545929, -0.11347350478172302, -0.10035131871700287, 0.08360948413610458, -0.05297739431262016, 0.08345751464366913, 0.11112460494041443, 0.10115596652030945, 0.0729597955942154, 0.027447670698165894, 0.04184576869010925, -0.027714774012565613, 0.1052563488483429, -0.05874727666378021, 0.09966877102851868, -0.049170270562171936, -0.04014645516872406, -0.036840200424194336, 0.07833327353000641, 0.08802061527967453, 0.03749406337738037], [0.05637776479125023, -0.16628077626228333, 0.10007910430431366, -0.2867930829524994, -0.23511026799678802, -0.02726765349507332, 0.11383726447820663, -0.3128528892993927, 0.002195116365328431, -0.052829310297966, -0.17626464366912842, 0.0484386570751667, -0.14572761952877045, -0.2679803669452667, 0.00715796509757638, -0.06124114990234375, 0.0718299001455307, -0.01474002841860056, -0.026952648535370827, 0.05604415386915207, -0.09455688297748566, -0.022049665451049805, 0.1489286571741104, 0.04370344430208206, 0.09695040434598923, 0.026403144001960754, 0.11092245578765869, -0.11391052603721619, -0.07678555697202682, 0.02842283621430397, -0.0917949303984642, 0.0825229063630104, -0.052512433379888535, 0.1841573268175125, -0.0793142169713974, 0.15645380318164825, 0.13302430510520935, -0.10365589708089828, -0.0451948344707489, -0.2507612705230713, -0.057930558919906616, -0.263480007648468, 0.05616338178515434, 0.054396580904722214, -0.048358358442783356, 0.009914151392877102, 0.007420573849231005, -0.056714292615652084, -0.0022621359676122665, 0.1056130900979042, -0.06631232053041458, -0.1455085128545761, 0.07156868278980255, -0.032182469964027405, -0.01505154836922884, -0.0936952754855156, 0.03231433033943176, -0.14794902503490448, 0.18255732953548431, -0.06175900250673294, -0.2693903148174286, -0.1671118289232254, 0.13265138864517212, -0.32769161462783813], [-0.06511151790618896, 0.09671228379011154, 0.08234982937574387, 0.2875795066356659, 0.17145946621894836, 0.05529429763555527, 0.043595001101493835, -0.05669214203953743, 0.03327527269721031, -0.008489146828651428, -0.023612257093191147, 0.11057768762111664, -0.007719294633716345, 0.14066769182682037, 0.07089806348085403, -0.08325052261352539, 0.08207409828901291, 0.010573802515864372, 0.06796260923147202, 0.013084637001156807, 0.06080113351345062, 0.08407702296972275, 0.1431254893541336, 0.004469301085919142, 0.07480781525373459, 0.025708725675940514, -0.06696699559688568, 0.11575090885162354, 0.11639320105314255, -0.13981395959854126, 0.03008630871772766, -0.09706851840019226, 0.21313975751399994, 0.15487457811832428, 0.14248324930667877, -0.12215033173561096, 0.038053128868341446, 0.11500469595193863, 0.20260243117809296, 0.13792550563812256, 0.07041554898023605, 0.1716538667678833, 0.05699274688959122, -0.03572545200586319, 0.01192866638302803, 0.10857653617858887, -0.09724944829940796, 0.04899722710251808, -0.03291640803217888, -0.11032482236623764, 0.0328315831720829, -0.08805644512176514, 0.03353668004274368, -0.07412183284759521, -0.020938964560627937, 0.0381593219935894, -0.034201644361019135, -0.03221582993865013, -0.14367668330669403, -0.05383852869272232, 0.1292331963777542, 0.03212442621588707, 0.15945255756378174, 0.01905699633061886], [-0.07800978422164917, -0.13013960421085358, 0.053695838898420334, -0.03948188200592995, -0.026422277092933655, -0.039671640843153, 0.049010977149009705, 0.01172971073538065, 0.0891948938369751, -0.044619444757699966, 0.042779602110385895, -0.11678306758403778, -0.11176279932260513, 0.041049446910619736, -0.08856630325317383, -0.05998767912387848, -0.09122633934020996, -0.03303607180714607, 0.04065874591469765, -0.13999958336353302, -0.11331240832805634, 0.07599357515573502, -0.03010500594973564, 0.03037087246775627, 0.0346103236079216, -0.10689444839954376, 0.07510074973106384, 0.09216859936714172, 0.04037431627511978, 0.07388526201248169, 0.07104860246181488, -0.11536844074726105, -0.038867197930812836, -0.03759634494781494, -0.11230925470590591, -0.13046321272850037, -0.014827096834778786, 0.0024700721260160208, -0.04876304045319557, -0.08504560589790344, -0.10601016879081726, 0.07669752836227417, -0.057514239102602005, 0.06808311492204666, 0.09660744667053223, -0.05308710038661957, -0.0805860087275505, -0.13182003796100616, 0.02219107374548912, 0.0939149558544159, -0.10069677233695984, 0.01505332998931408, -0.017199892550706863, -0.04520295560359955, -0.046917472034692764, -0.01611536182463169, -0.04725181683897972, 0.08677060902118683, 0.0005443693371489644, -0.07805380970239639, -0.016138942912220955, -0.07672855257987976, 0.09271106868982315, -0.030640138313174248], [0.04746031016111374, 0.050942424684762955, 0.10292196273803711, 0.3427707552909851, 0.27287614345550537, 0.046635039150714874, 0.09798756241798401, 0.14664940536022186, 0.11098923534154892, -0.17944903671741486, -0.06027954816818237, 0.15187817811965942, 0.018952131271362305, 0.4434891939163208, -0.04099034518003464, 0.07809686660766602, 0.01538889855146408, 0.12723645567893982, -0.04037448391318321, -0.10545263439416885, 0.09096109867095947, -0.005719700362533331, 0.0359976626932621, -0.06961678713560104, 0.08576804399490356, -0.6887698769569397, 0.016147151589393616, 0.1122356727719307, 0.09877500683069229, -0.0676197037100792, -0.056483663618564606, -0.0387011393904686, 0.061031363904476166, 0.07837721705436707, 0.1292324960231781, -0.07407992333173752, 0.1098691001534462, 0.1137751117348671, -0.0515296496450901, -0.06381351500749588, 0.046067070215940475, 0.060810357332229614, 0.13622306287288666, 0.13696542382240295, 0.0668388307094574, 0.02665490098297596, -0.14358343183994293, -0.15333792567253113, 0.08038175106048584, -0.14835484325885773, 0.1312408149242401, 0.03933757543563843, 0.1430843025445938, -0.04434126615524292, 0.10451098531484604, 0.08889105916023254, -0.17742158472537994, 0.009196601808071136, -0.024336157366633415, 0.0433448925614357, 0.02577647566795349, 0.04036172106862068, -0.12505187094211578, 0.28457924723625183], [0.09759443253278732, 0.1857629120349884, -0.08050064742565155, 0.31947624683380127, 0.4326891303062439, 0.09666904807090759, -0.2098548263311386, -0.11402922868728638, -0.26239123940467834, -0.04342525824904442, 0.08272745460271835, 0.2539618909358978, 0.12537254393100739, 0.25372475385665894, 0.213099405169487, -0.010398387908935547, 0.34402769804000854, -0.07627946883440018, 0.026641065254807472, 0.08488485217094421, -0.05810968577861786, 0.09513992816209793, 0.1207069531083107, 0.22474372386932373, 0.07438401877880096, 0.03242404758930206, 0.03762921690940857, 0.2168821394443512, 0.1525464653968811, 0.032763611525297165, 0.08213013410568237, -0.04916181042790413, 0.0027509192004799843, -0.04971902444958687, 0.16469869017601013, -0.173874169588089, -0.0344451442360878, 0.006348388735204935, 0.3792751133441925, 0.1633514165878296, -0.12382950633764267, 0.2469158172607422, 0.1384926438331604, -0.0690736174583435, -0.13260416686534882, 0.25205907225608826, 0.012692327611148357, -0.08912456035614014, 0.2521006464958191, 0.0267192292958498, 0.11270567029714584, 0.17173008620738983, 0.03408781811594963, 0.06119923293590546, -0.03863396495580673, 0.04287052899599075, -0.016537927091121674, 0.14131122827529907, -0.026242515072226524, 0.18625658750534058, 0.19390471279621124, 0.16262933611869812, -0.012857228517532349, 0.2587830126285553], [0.0995139554142952, -0.04016610607504845, 0.04551307111978531, -0.28085872530937195, -0.3209950923919678, -0.05590559169650078, -0.005050170235335827, 0.11167655885219574, 0.15428540110588074, 0.1444808840751648, -0.08267074078321457, 0.12862451374530792, -0.09274055063724518, -0.14268997311592102, -0.04532858356833458, 0.01187087595462799, -0.1069779172539711, 0.13591401278972626, 0.0032972521148622036, 0.08107760548591614, 0.06811277568340302, 0.01871180348098278, -0.005287981126457453, 0.1087164580821991, -0.0467350147664547, -0.1230529174208641, -0.062458768486976624, 0.026183797046542168, -0.022898318246006966, -0.10495663434267044, -0.03795256465673447, -0.12204430252313614, 0.017836952582001686, -0.06264883279800415, -0.02254062332212925, -0.044870149344205856, 0.08819466084241867, 0.11669118702411652, -0.14183959364891052, 0.008083067834377289, -0.027166014537215233, -0.06467614322900772, 0.04267474636435509, 0.10733532160520554, -0.06089279055595398, -0.056338921189308167, 0.050481051206588745, 0.0682644322514534, -0.0906509980559349, 0.07660260796546936, 0.10972005873918533, 0.0023272691760212183, 0.1456793248653412, -0.00865316390991211, 0.07789383828639984, -0.028223175555467606, 0.09793903678655624, -0.2023230940103531, 0.14881086349487305, -0.08020487427711487, -0.15772268176078796, -0.14339111745357513, 0.11497197300195694, -0.01894373632967472], [-0.013626093044877052, 0.04740302637219429, 0.0809313952922821, 0.08000960946083069, 0.009016820229589939, -0.11702261865139008, -0.07647578418254852, -0.1032821461558342, 0.030801529064774513, 0.10048002004623413, 0.0434889979660511, -0.03328366577625275, -0.038481518626213074, 0.06559032946825027, 0.05834975838661194, -0.0163433700799942, -0.13891687989234924, -0.023625461384654045, 0.05098935216665268, 0.03294339403510094, 0.12348632514476776, -0.0956781804561615, 0.012836693786084652, 0.07925034314393997, -0.008502313867211342, 0.10673104226589203, 0.026203975081443787, 0.06888465583324432, 0.052296604961156845, -0.08004961907863617, -0.11024028062820435, 0.03833143785595894, -0.12701888382434845, -0.14836463332176208, -0.0231008343398571, -0.14016081392765045, 0.0246726181358099, 0.09687301516532898, 0.09364858269691467, 0.004560362081974745, -0.041987963020801544, -0.07019495218992233, 0.07317323982715607, 0.012060574255883694, -0.12151219695806503, -0.04018745198845863, -0.018859073519706726, 0.07910262793302536, 0.10014753043651581, -0.08375555276870728, -0.12310754507780075, -0.03406490385532379, -0.007415389642119408, -0.08968283236026764, -0.07262755930423737, 0.002031417330726981, -0.014733902178704739, 0.09684767574071884, 0.005560755264014006, 0.08272998780012131, -0.026806488633155823, -0.06646318733692169, 0.06898841261863708, -0.127545565366745], [0.07027602940797806, -0.021537870168685913, 0.03091580420732498, 0.0897442027926445, 0.03937649726867676, -0.028506800532341003, -0.07760054618120193, 0.10582239925861359, -0.05997111275792122, -0.06039035692811012, -0.01342353131622076, 0.0021093206014484167, 0.028467923402786255, -0.016464650630950928, -0.018467888236045837, -0.08774435520172119, -0.03978211432695389, -0.05452125146985054, -0.08774829655885696, -0.0630912333726883, -0.08496299386024475, -0.07082641869783401, -0.024639591574668884, 0.028555914759635925, 0.029317572712898254, 0.022915512323379517, 0.09271694719791412, -0.07275625318288803, 0.036843061447143555, -0.006448268890380859, -0.10187534987926483, 0.012502819299697876, 0.018800437450408936, 0.01062632817775011, 0.07381381094455719, -0.039089784026145935, 0.11336258053779602, -0.11994040012359619, -0.07891611754894257, -0.09992468357086182, 0.04182598367333412, -0.011127158999443054, -0.005033090710639954, 0.05946991220116615, -0.02426217496395111, 0.07860801368951797, 0.050615280866622925, 0.08019905537366867, -0.05218586325645447, 0.06761641800403595, 0.0448274128139019, -0.12128755450248718, 0.015530114993453026, -0.1076439619064331, -0.048167865723371506, 0.1139112263917923, -0.017945215106010437, 0.09643822908401489, -0.08946030586957932, 0.016443544998764992, 0.062054798007011414, 0.04515724256634712, -0.026614457368850708, 0.06219133734703064], [0.030652984976768494, 0.06436532735824585, -0.0006441622972488403, 0.11522781848907471, 0.05493682622909546, -0.015046671032905579, -0.11409948766231537, 0.07272350788116455, 0.025165170431137085, -0.041691407561302185, -0.014560312032699585, 0.037245169281959534, -0.025755062699317932, -0.08110059797763824, -0.0173647403717041, 0.00458933413028717, -0.05477157235145569, -0.03208194673061371, 0.03904500603675842, -0.06672611832618713, -0.07649180293083191, 0.036500588059425354, 0.03151144087314606, 0.015173405408859253, 0.022769346833229065, -0.09436400234699249, 0.09430831670761108, 0.064252108335495, -0.12418465316295624, -0.08921366930007935, 0.0674789696931839, -0.047662243247032166, -0.06683441996574402, 0.06131109595298767, 0.07609733939170837, 0.07067254185676575, -0.005526751279830933, -0.1180306077003479, 0.10273696482181549, 0.08397747576236725, -0.08098702132701874, -0.09613111615180969, -0.08232314884662628, 0.07098166644573212, -0.09999985992908478, -0.07400654256343842, 0.10807287693023682, -0.02597932517528534, 0.0470397025346756, 0.0470149964094162, -0.03782118856906891, 0.0425400584936142, 0.057627856731414795, -0.12025496363639832, 0.052495360374450684, -0.05225363373756409, 0.12161216139793396, -0.009662970900535583, -0.06710734963417053, 0.09693346917629242, -0.08592012524604797, -0.021438494324684143, -0.03998382389545441, 0.10276612639427185], [0.010114192962646484, 0.0008227229118347168, -0.06275346875190735, 0.021893814206123352, 0.07774186134338379, -0.04356449842453003, -0.07539810240268707, 0.024987250566482544, -0.016976922750473022, -0.08444851636886597, -0.024526655673980713, -0.08045095205307007, 0.010786592960357666, -0.11310254037380219, -0.04202677309513092, -0.023437410593032837, -0.03337088227272034, 0.09433497488498688, 0.03234730660915375, -0.09475408494472504, 0.05150677263736725, -0.009929448366165161, 0.014982476830482483, -0.04496943950653076, 0.0637706071138382, 0.0077120959758758545, -0.04034198820590973, 0.06441590189933777, -0.003988996148109436, -0.056993305683135986, -0.00889238715171814, -0.016331464052200317, 0.09119787812232971, -0.0016789287328720093, 0.09050095081329346, 0.08974574506282806, -0.0925159752368927, 0.09276685118675232, -0.07519437372684479, -0.05202370882034302, -0.10402949154376984, -0.09165191650390625, 0.04362267255783081, 0.03511810302734375, 0.01642143726348877, -0.11728069186210632, -0.11498263478279114, 0.05903467535972595, -0.06882330775260925, -0.022231101989746094, 0.01180015504360199, 0.03273040056228638, 0.10021102428436279, -0.09294697642326355, 0.055297285318374634, -0.07953466475009918, 0.12006035447120667, 0.11029519140720367, -0.04561474919319153, 0.025341972708702087, -0.06916604936122894, -0.09595872461795807, -0.05642858147621155, -0.06826944649219513], [0.020688142627477646, 0.0046143317595124245, 0.06164081394672394, 0.29175153374671936, 0.26009055972099304, -0.27624252438545227, 0.29806411266326904, -0.30776247382164, 0.08542177081108093, 0.1538928598165512, -0.08213413506746292, -0.3203835189342499, -0.11491776257753372, -0.3857888877391815, -0.157253235578537, 0.047972872853279114, 0.09965188056230545, 0.1825811117887497, -0.053061310201883316, 0.153595432639122, -0.020345300436019897, -0.15332290530204773, -0.22448520362377167, 0.005814760457724333, -0.18766197562217712, -0.2895485460758209, 0.09165188670158386, 0.1181974709033966, -0.5568764209747314, 0.36147138476371765, -0.20514875650405884, -0.2530221939086914, -0.3062669634819031, 0.03904468193650246, 0.03968473896384239, 0.05074214190244675, 0.29220929741859436, -0.05504235625267029, -0.16897843778133392, 0.02504880167543888, 0.11667977273464203, 0.04394473880529404, -0.5750400424003601, 0.1017010286450386, 0.22012269496917725, 0.11902739852666855, -0.21253716945648193, 0.2576661705970764, -0.1441371887922287, -0.2954147160053253, -0.02367710880935192, -0.03730229288339615, 0.06574059277772903, 0.033590659499168396, 0.08584748953580856, -0.30654004216194153, -0.3766925632953644, -0.27886348962783813, 0.29036661982536316, 0.15056607127189636, -0.08735094219446182, -0.033514827489852905, -0.12669280171394348, -0.37946459650993347], [-0.13047915697097778, -0.032535649836063385, 0.012268458493053913, -0.3229941129684448, -0.09165322780609131, 0.0554564893245697, -0.013153376057744026, -0.24763841927051544, 0.2201467901468277, 0.21227571368217468, -0.0557887926697731, -0.2283409982919693, 0.0949099212884903, -0.1550239771604538, -0.18669402599334717, 0.08759774267673492, -0.24334119260311127, 0.045587725937366486, -0.07928850501775742, 0.09619461745023727, -0.10324105620384216, -0.16597242653369904, 0.030135393142700195, 0.018568189814686775, -0.16361482441425323, -0.02494366466999054, -0.06588195264339447, -0.05878570303320885, -0.16691263020038605, -0.010141054168343544, -0.015620888210833073, 0.06241494044661522, -0.02241715043783188, -0.1385892778635025, 0.10415835678577423, 0.15639536082744598, 0.2030579000711441, -0.0012572983978316188, 0.05299875885248184, 0.04674919322133064, 0.011154749430716038, -0.20261986553668976, -0.07179073244333267, 0.06310360878705978, 0.009622257202863693, -0.02102784812450409, 0.09049123525619507, 0.1931559443473816, -0.022753778845071793, -0.023773597553372383, 0.07613832503557205, -0.07904142141342163, 0.17338547110557556, -0.0874728262424469, -0.017441267147660255, -0.04037490487098694, -0.10356276482343674, -0.07835690677165985, 0.21888227760791779, 0.08496604859828949, -0.04295461252331734, -0.22045950591564178, 0.04573248326778412, -0.10028790682554245], [0.10587435960769653, 0.03715051710605621, -0.08019617199897766, 0.11594752967357635, 0.04155708849430084, -0.011178091168403625, -0.056171417236328125, -0.07401116192340851, -0.04096059501171112, -0.10535722970962524, 0.08827762305736542, -0.10662353038787842, 0.042170450091362, -0.11053180694580078, 0.021506473422050476, 0.040165841579437256, -0.06042817234992981, -0.03390297293663025, -0.11493022739887238, -0.06295827031135559, 0.01067093014717102, 0.10471899807453156, 0.028414398431777954, -0.03180858492851257, -0.08399157226085663, -0.05441974103450775, -0.018556922674179077, -0.011748969554901123, 0.057678669691085815, -0.06058742105960846, -0.12080085277557373, 0.09727448225021362, -0.03773006796836853, 0.015334263443946838, -0.06770120561122894, -0.10294581949710846, 0.034631818532943726, 0.10584428906440735, -0.1137726753950119, 0.1199408620595932, -0.00039677321910858154, -0.0376194566488266, -0.04415491223335266, 0.10704818367958069, 0.0981217622756958, -0.038065969944000244, -0.013522326946258545, -0.11829766631126404, -0.0715254694223404, 0.07084876298904419, -0.042641788721084595, -0.11926878988742828, -0.09108804166316986, 0.11452282965183258, -0.05586200952529907, -0.0005014389753341675, 0.026431962847709656, -0.11734500527381897, 0.11650870740413666, -0.0863441526889801, -0.020241305232048035, 0.08910427987575531, 0.0935305505990982, -0.03528335690498352], [0.06531874090433121, 0.0991569235920906, -0.07192181050777435, 0.09767154604196548, 0.13028296828269958, 0.015313906595110893, -0.025190625339746475, 0.012682639062404633, 0.0452263318002224, -0.023581404238939285, 0.10605309158563614, -0.014269344508647919, -0.026464542374014854, 0.13848333060741425, 0.06256784498691559, -0.07494339346885681, -0.1415034681558609, -0.09749644994735718, 0.1430249810218811, 0.06986448913812637, 0.03322245180606842, -0.08240789920091629, 0.0754028931260109, -0.038555458188056946, 0.015667052939534187, 0.1085805743932724, 0.027142539620399475, 0.0419536828994751, 0.011974727734923363, -0.04502749815583229, 0.010412061586976051, -0.024131514132022858, 0.002135690301656723, 0.15300343930721283, -0.023089690133929253, -0.06546157598495483, 0.01847017928957939, -0.05692647770047188, 0.07252666354179382, 0.18627919256687164, -0.16737127304077148, 0.05874859169125557, 0.16300204396247864, 0.10999898612499237, 0.11113210767507553, 0.03376973420381546, 0.002964430721476674, -0.03501807153224945, -0.006368713453412056, 0.11430265009403229, 0.03823096305131912, -0.12336990237236023, -0.026867540553212166, 0.03093726933002472, 0.11650586873292923, 0.14397472143173218, 0.06887353211641312, 0.133305162191391, -0.08986487239599228, -0.1073785126209259, -0.04974787309765816, -0.11589085310697556, 0.056188248097896576, 0.1382521688938141], [-0.03640685975551605, 0.18973831832408905, 0.04546402394771576, 0.17708612978458405, 0.22686946392059326, -0.0725230798125267, -0.16098546981811523, -0.1302056461572647, -0.011091798543930054, -0.07895314693450928, -0.0039224219508469105, 0.03639673814177513, 0.005748169496655464, 0.0680147334933281, 0.02001677080988884, 0.03718306124210358, 0.07311055064201355, 0.001520710182376206, -0.0296346265822649, -0.030232327058911324, -0.04816801846027374, -0.009771769866347313, -0.0653982162475586, 0.03553975373506546, -0.030679048970341682, -0.07159613072872162, -0.04651069641113281, 0.043532706797122955, 0.02384590357542038, 0.0862799659371376, 0.11646854132413864, 0.10925308614969254, 0.08267970383167267, -0.039117567241191864, -0.11795789748430252, 0.07028226554393768, 0.02602200023829937, 0.007344808895140886, 0.1969916820526123, 0.15369564294815063, 0.02890811301767826, 0.061987362802028656, -1.6353549654013477e-05, 0.017838509753346443, 0.10027176886796951, 0.030290400609374046, 0.08134262263774872, 0.11271072924137115, 0.03740590065717697, -0.010754822753369808, -0.01717212237417698, -0.0015010809293016791, 0.0820225179195404, 0.1240956038236618, 0.021418126299977303, 0.1286604255437851, 0.00575597770512104, -0.0038308226503431797, 0.03816991671919823, -0.008796289563179016, 0.2596418261528015, 0.17508548498153687, 0.13676677644252777, 0.11886680126190186], [-0.10812793672084808, -0.018561989068984985, -0.06985415518283844, 0.024014756083488464, -0.009763523936271667, -0.04654558002948761, -0.09120440483093262, 0.04840569198131561, -0.1040462851524353, 0.026984870433807373, 0.09803853929042816, 0.10903239250183105, 0.10972978174686432, 0.12120983004570007, -0.09729522466659546, 0.061375752091407776, 0.07744431495666504, -0.04126313328742981, 0.11233049631118774, 0.09862524271011353, -0.054058343172073364, 0.0036895722150802612, 0.027495667338371277, -0.07153657078742981, 0.0007679611444473267, 0.03262181580066681, -0.051583677530288696, 0.05686841905117035, -0.03335869312286377, -0.07136456668376923, 0.03112904727458954, 0.017790481448173523, 0.012338757514953613, 0.04162664711475372, -0.11418431997299194, -0.05235688388347626, -0.12410739064216614, 0.07415461540222168, -0.0384126752614975, -0.03825707733631134, 0.0033187121152877808, 0.09615875780582428, -0.10936203598976135, -0.005490705370903015, 0.020991548895835876, 0.05922473967075348, -0.0003480464220046997, -0.011963024735450745, -0.002485126256942749, 0.03139887750148773, 0.05588158965110779, -0.08390113711357117, -0.08803610503673553, -0.06834462285041809, 0.029386743903160095, -0.015349343419075012, -0.04606302082538605, -0.11995123326778412, -0.010010853409767151, 0.11872726678848267, -0.1016550064086914, 0.10993126034736633, -0.02221047878265381, -0.058162108063697815], [0.10347182303667068, -0.1694638729095459, -0.014614804647862911, -0.27415984869003296, -0.2765529155731201, 0.07123351842164993, 0.12503832578659058, 0.39047306776046753, -0.05611105635762215, 0.026051292195916176, 0.2343299686908722, 0.17633792757987976, -0.15724647045135498, -0.1951194554567337, -0.01907997950911522, -0.10398887097835541, -0.010341989807784557, 0.131532683968544, 0.14100366830825806, -0.011017024517059326, -0.08955647051334381, 0.17220932245254517, -0.02500024251639843, -0.054483987390995026, 0.13545697927474976, 0.04396339878439903, 0.115704745054245, 0.016409918665885925, -0.043471988290548325, -0.0779576376080513, 0.07307995855808258, -0.012609947472810745, -0.013849254697561264, 0.15414169430732727, 0.023871833458542824, -0.010659358464181423, 0.14832952618598938, -0.04359312355518341, 0.00620606541633606, -0.12028861790895462, 0.12053196132183075, -0.04032324627041817, -0.07756190001964569, 0.024579983204603195, 0.035421859472990036, -0.19087934494018555, 0.1538245677947998, 0.043522246181964874, 0.0033749800641089678, 0.07926706969738007, 0.13104315102100372, -0.20846624672412872, 0.11517106741666794, 0.0053485482931137085, -0.000838172622025013, 0.21406102180480957, 0.025589680299162865, 0.11130739003419876, 0.06379151344299316, -0.05489243566989899, -0.332537978887558, -0.06670516729354858, 0.007301086559891701, -0.08429231494665146], [-0.10491073131561279, -0.009771360084414482, 0.004231038503348827, -0.34685760736465454, -0.30674365162849426, -0.04649580642580986, 0.07989501953125, -0.10529366135597229, 0.06953143328428268, 0.0841732919216156, -0.08718343824148178, -0.09221678972244263, 0.009734014980494976, 0.02560255117714405, -0.0653686597943306, 0.011572912335395813, -0.06651120632886887, 0.07275610417127609, -0.044827017933130264, 0.07935069501399994, -0.1207989752292633, -0.1423100233078003, -0.13908223807811737, 0.006224203389137983, -0.19888395071029663, -0.12928874790668488, -0.01398584246635437, -0.15670515596866608, -0.14833565056324005, 0.01593860425055027, -0.13022087514400482, -0.0046511460095644, -0.1013142541050911, -0.1418118178844452, 0.06141802296042442, -0.048698410391807556, 0.20958244800567627, 0.04568793997168541, -0.059092927724123, -0.09272023290395737, 0.1705520749092102, -0.035215314477682114, -0.19230909645557404, -0.07892502844333649, 0.06686677783727646, -0.21494553983211517, 0.0839126780629158, 0.15846408903598785, 0.2013407200574875, 0.07033386826515198, -0.013211962766945362, 0.10214469581842422, 0.14180395007133484, -0.08233238756656647, -0.04875125735998154, -0.13953566551208496, 0.058020416647195816, -0.04205966368317604, 0.08570720255374908, 0.03813968226313591, -0.0013811243698000908, -0.11592703312635422, 0.051412634551525116, -0.16021373867988586], [0.06971456855535507, 0.2618713676929474, 0.0025782654993236065, 0.32145002484321594, 0.28082048892974854, 0.013420279137790203, 0.1071842759847641, 0.06748142093420029, -0.08879730105400085, -0.13204549252986908, 0.13681547343730927, 0.12814277410507202, 0.010645104572176933, 0.3146337568759918, 0.042837679386138916, -0.04967495799064636, 0.07824007421731949, -0.021358972415328026, -0.08653620630502701, 0.14374515414237976, 0.0885651558637619, 0.12735112011432648, 0.03523830324411392, -0.07674563676118851, 0.30472487211227417, -0.009979506954550743, 0.05272097885608673, -0.02320147305727005, 0.16256947815418243, -0.06432577222585678, 0.02542278915643692, -0.03421109914779663, 0.1577482372522354, 0.1748921275138855, -0.005132479127496481, -0.11989820748567581, -0.11431288719177246, 0.1283714324235916, 0.08137432485818863, 0.07348798215389252, 0.10150473564863205, 0.0018013626104220748, 0.24285230040550232, 0.04798350855708122, 0.026551419869065285, -0.0361989364027977, -0.20518530905246735, -0.17028602957725525, 0.05904601886868477, -0.19588850438594818, -0.010560065507888794, -0.01102191861718893, 0.09991448372602463, -0.11323991417884827, 0.027491020038723946, 0.025114594027400017, -0.012320033274590969, 0.03476346284151077, 0.018322601914405823, -0.049679018557071686, 0.10522054135799408, 0.09092402458190918, -0.057692017406225204, 0.15603134036064148], [-0.027237793430685997, -0.2573975622653961, 0.15645873546600342, -0.336131751537323, -0.14702507853507996, 0.0025476112496107817, 0.05672311782836914, 0.09935242682695389, 0.21933194994926453, -0.02570374310016632, -0.15605325996875763, -0.03717265650629997, -0.10613842308521271, -0.19927270710468292, 0.06848347932100296, 0.11183905601501465, -0.04097118228673935, 0.023574015125632286, -0.08706063032150269, 0.07097470015287399, 0.08728887140750885, -0.12813957035541534, -0.04876169189810753, -0.014198479242622852, -0.08849804103374481, -0.009662438184022903, 0.034886881709098816, -0.053851813077926636, -0.13655813038349152, 0.10212097316980362, -0.06122473254799843, 0.029413336887955666, -0.016597745940089226, 0.03133508935570717, 0.08095353841781616, -0.011839255690574646, 0.22538043558597565, 0.07868260145187378, -0.1766841858625412, -0.004387575667351484, 0.06704672425985336, -0.009561276063323021, -0.10533622652292252, -0.009261670522391796, -0.027788199484348297, -0.17766651511192322, -0.01504116877913475, 0.014494952745735645, -0.19601953029632568, 0.12163078784942627, 0.07187984883785248, 0.03809636831283569, 0.0020030364394187927, 0.05962863564491272, 0.11701248586177826, -0.18360431492328644, 0.0499553345143795, -0.22691553831100464, 0.18911145627498627, 0.08992500603199005, -0.20199419558048248, -0.17045900225639343, -0.007586302235722542, -0.15512865781784058], [-0.00581812858581543, 0.04489554464817047, -0.05562250688672066, 0.10979592055082321, -0.12259277701377869, 0.007616282440721989, 0.07281956821680069, -0.02331295609474182, -0.11935300379991531, 0.0007521358784288168, 0.02960588037967682, 0.01570318639278412, 0.05798192322254181, -0.09950952231884003, 0.1027289628982544, 0.051339924335479736, 0.12152642011642456, -0.046262964606285095, -0.052655179053545, -0.129344180226326, -0.00941033661365509, -0.06606456637382507, -0.034043777734041214, -0.014412370510399342, 0.058940473943948746, -0.08228298276662827, -0.12208063900470734, 0.0766434594988823, -0.09087031334638596, 0.05100381001830101, -0.13020487129688263, 0.03966919332742691, 0.07504937052726746, -0.011779614724218845, 0.0488588772714138, 0.07775948941707611, -0.07046663016080856, -0.027078568935394287, -0.007770157419145107, 0.06006907671689987, 0.05655987560749054, -0.05955282598733902, 0.097818523645401, -0.10643181204795837, -0.01785988360643387, 0.0018197745084762573, -0.04690200835466385, 0.07723653316497803, -0.10029501467943192, -0.09112122654914856, 0.021798372268676758, -0.04112360253930092, 0.04910138249397278, 0.12438160181045532, -0.0953228771686554, 0.0322858989238739, -0.07785395532846451, -0.0031323879957199097, 0.06352526694536209, -0.0583837628364563, 0.034415699541568756, -0.10619358718395233, 0.04716762527823448, 0.0821061059832573], [0.02890653908252716, 0.2326844036579132, 0.026716427877545357, -0.2875421941280365, -0.20947697758674622, -0.01871122419834137, 0.1270308643579483, -0.3522803485393524, 0.06025277078151703, -0.06031164154410362, -0.16178478300571442, -0.42318195104599, 0.35826224088668823, 0.4062463045120239, -0.19138550758361816, -0.08245779573917389, -0.08501271158456802, 0.03594210371375084, 0.060519590973854065, 0.018784373998641968, -0.05414155125617981, -0.15806806087493896, 0.05283910036087036, -0.12206926941871643, -0.08943852037191391, 0.10195934772491455, -0.053689733147621155, -0.04097037389874458, -0.2671818435192108, 0.10442425310611725, 0.135689377784729, 0.14053824543952942, 0.08189402520656586, -0.2208888679742813, 0.06077675148844719, 0.052637070417404175, 0.08946562558412552, -0.060553696006536484, 0.339000403881073, -0.003582760225981474, 0.05508837476372719, 0.09088411927223206, 0.05488620698451996, 0.12449079006910324, 0.035373952239751816, -0.06113580986857414, 0.12178409099578857, -0.010251504369080067, 0.15876224637031555, -0.016868360340595245, 0.050238899886608124, 0.24288342893123627, 0.05952281504869461, 0.017862766981124878, 0.0061690243892371655, -0.05947606638073921, 0.06573900580406189, -0.1430821716785431, 0.10775143653154373, -0.08977571129798889, 0.3707389235496521, -0.1382492631673813, -0.0459669828414917, -0.1029040515422821], [-0.04314567521214485, 0.00641540577635169, 0.1043001040816307, -0.38904398679733276, -0.15683171153068542, -0.17611855268478394, 0.15833497047424316, -0.11449248343706131, 0.14700298011302948, 0.18458566069602966, -0.2439243495464325, -0.17900507152080536, 0.13714522123336792, -0.20662212371826172, -0.17114169895648956, 0.021170705556869507, -0.2617553174495697, 0.03728890046477318, 0.032032277435064316, 0.05924936756491661, -0.009770482778549194, -0.08062712103128433, -0.16581708192825317, -0.17891965806484222, -0.2886371910572052, -0.07255520671606064, 0.04156266152858734, -0.14541283249855042, -0.17975082993507385, 0.16538211703300476, -0.02592635527253151, -0.10008402913808823, -0.106917604804039, -0.1849285215139389, 0.0042274026200175285, 0.20816464722156525, 0.12077301740646362, 0.016593029722571373, -0.12146177887916565, -0.06139616668224335, 0.1374245285987854, -0.16792012751102448, -0.23811616003513336, -0.15379415452480316, 0.12883120775222778, -0.03742509335279465, 0.07343297451734543, 0.08722425252199173, -0.1099243015050888, 0.16986927390098572, -0.08279147744178772, -0.09972571581602097, 0.1684814840555191, -0.10277190804481506, 0.07060647755861282, -0.18896111845970154, 0.09772796183824539, -0.19246627390384674, 0.2053494155406952, 0.019908949732780457, -0.07342524081468582, -0.21015627682209015, -0.06158633157610893, -0.20362666249275208], [-0.018209774047136307, 0.1097516417503357, -0.0751175656914711, -0.038297176361083984, 0.08630271255970001, -0.11423682421445847, -0.014182447455823421, 0.10096502304077148, -0.10323895514011383, -0.07328413426876068, -0.004119079560041428, -0.03764799237251282, -0.10353587567806244, -0.0500975176692009, 0.05634205788373947, 0.061413317918777466, 0.04477471113204956, 0.03940597176551819, 0.06434845924377441, 0.0982607901096344, -0.005102619528770447, -0.13682571053504944, 0.014219550415873528, 0.06690757721662521, -0.1306651532649994, -0.03048689104616642, 0.09175707399845123, -0.033910758793354034, -0.10049637407064438, 0.02514319308102131, -0.012141733430325985, -0.06861250102519989, 0.09020864218473434, -0.07703420519828796, 0.05641574412584305, -0.07608702033758163, -0.14299820363521576, -0.058147504925727844, 0.042531877756118774, 0.011377387680113316, -0.12676742672920227, -0.07372161746025085, 0.05141967535018921, -0.14229629933834076, -0.0254869032651186, 0.08971379697322845, 0.07385893166065216, 0.07262793928384781, 0.04009246826171875, -0.09443829953670502, -0.056206706911325455, 0.05516792833805084, 0.057274844497442245, 0.07434611022472382, 0.0032506256829947233, 0.07210349291563034, -0.034747395664453506, 0.0568537637591362, 0.053161654621362686, 0.017930278554558754, -0.0604964941740036, 0.07940997183322906, -0.115571029484272, -0.11157011240720749], [0.190237358212471, -0.37528735399246216, 0.07746271789073944, -0.2686643600463867, -0.05511603131890297, -0.039112403988838196, 0.21962584555149078, 0.2710304856300354, 0.05107572302222252, 0.17481504380702972, 0.1309582144021988, 0.3794260025024414, -0.3165266215801239, -0.34314411878585815, 0.21163158118724823, -0.10324950516223907, 0.08522786945104599, 0.04784664139151573, -0.009735804051160812, 0.09554214775562286, 0.042743027210235596, 0.26781579852104187, 0.11567909270524979, -0.047572579234838486, 0.10220849514007568, -0.18769431114196777, -0.0015451908111572266, -0.16550561785697937, 0.06273876130580902, 0.07615174353122711, 0.021560901775956154, -0.10948218405246735, 0.13324211537837982, 0.4983591139316559, -0.024333016946911812, 0.16583004593849182, 0.27161091566085815, 0.13451819121837616, -0.29985493421554565, -0.20110540091991425, -0.09664669632911682, -0.11141395568847656, -0.2772112190723419, -0.011963573284447193, -0.10582870244979858, -0.0011980117997154593, 0.126783087849617, 0.07033895701169968, -0.33621782064437866, 0.18269585072994232, 0.18041908740997314, -0.4004356861114502, 0.11458456516265869, 0.04807642102241516, 0.2657715380191803, 0.2768534719944, -0.19565384089946747, 0.3665427267551422, 0.06481245160102844, -0.22042258083820343, -0.3595595359802246, -0.045240066945552826, 0.17061960697174072, -0.21491293609142303], [-0.12534144520759583, -0.08859403431415558, 0.016953101381659508, 0.11465534567832947, 0.08069863170385361, 0.04999680444598198, 0.060689881443977356, 0.09697188436985016, -0.12931540608406067, 0.030129892751574516, 0.03613944724202156, 0.09892624616622925, -0.06494110077619553, 0.020219407975673676, 0.08111467212438583, 0.11909982562065125, -0.11270758509635925, 0.002637747908011079, -0.11999796330928802, -0.07748258113861084, -0.03820733726024628, 0.02871590480208397, -0.03737996891140938, 0.03574186563491821, 0.05925988778471947, 0.07862961292266846, -0.11043967306613922, 0.05349333956837654, -0.015323218889534473, 0.010508663021028042, 0.09384078532457352, -0.13370198011398315, -0.12951591610908508, 0.0019519522320479155, -0.03815554827451706, 0.025376753881573677, -0.09023179113864899, 0.1131652221083641, 0.04531523585319519, -0.07736247777938843, -0.0012761781690642238, -0.019121697172522545, -0.0355064794421196, -0.11500107496976852, 0.023517180234193802, 0.060535728931427, 0.09260431677103043, -0.11159057915210724, 0.01103698369115591, 0.08439430594444275, -0.12048893421888351, -0.09009047597646713, -0.0299212783575058, -0.01569049060344696, -0.1381852775812149, -0.10360181331634521, 0.0627506822347641, -0.06280778348445892, -0.057663336396217346, -0.014686549082398415, -0.0029229719657450914, -0.1266057789325714, -0.10956472903490067, -0.13161461055278778], [0.06706796586513519, 0.2346215695142746, 0.001672003767453134, 0.41269561648368835, 0.09371631592512131, 0.08223830908536911, -0.1710309237241745, 0.28250181674957275, -0.13332130014896393, -0.18599791824817657, 0.17236152291297913, 0.10720429569482803, 0.12722152471542358, 0.18301545083522797, -0.02470812201499939, -0.04225550591945648, -0.010475887916982174, 0.024852976202964783, 0.07995054870843887, 0.04996265470981598, -0.021346256136894226, 0.09275730699300766, 0.06083239987492561, 0.21645574271678925, 0.028777264058589935, -0.022057505324482918, 0.12078557908535004, 0.07419738173484802, 0.10346724092960358, -0.11169743537902832, -0.0723046213388443, -0.028942711651325226, 0.09928172826766968, 0.04076284542679787, 0.08115767687559128, -0.11662279814481735, -0.18092496693134308, -0.023709570989012718, 0.13711996376514435, 0.24814756214618683, 0.08189947158098221, 0.18065860867500305, 0.26667875051498413, -0.019848136231303215, -0.002203893382102251, 0.1490773856639862, -0.20467215776443481, -0.24203167855739594, -0.00041317063733004034, -0.19724245369434357, -0.08202146738767624, -0.04532685503363609, -0.09798294305801392, 0.058446064591407776, 0.156268909573555, 0.2108582854270935, -0.1606278121471405, 0.32582810521125793, -0.10284014046192169, -0.11989732086658478, -0.07438495010137558, 0.140900120139122, 0.1179254800081253, 0.2841343283653259], [-0.11948082596063614, -0.12380307167768478, -0.09583458304405212, -0.10841858386993408, -0.11183862388134003, -0.03729371726512909, -0.026466352865099907, -0.12180191278457642, 0.08891678601503372, 0.09883875399827957, 0.07257291674613953, -0.12409069389104843, -0.021954134106636047, -0.08044543862342834, -0.0403810515999794, -0.0007242262363433838, -0.11534400284290314, -0.12363334745168686, -0.04707980901002884, -0.05934188514947891, 0.09307059645652771, 0.043046269565820694, -0.040401920676231384, -0.006470024585723877, 0.03584570810198784, 0.07940849661827087, -0.05200241506099701, 0.03455391898751259, -0.103586345911026, 0.11533160507678986, 0.058231011033058167, -0.08293339610099792, -0.017171770334243774, 0.032440438866615295, -0.06702408939599991, 0.03172991797327995, -0.12857773900032043, -0.00165560282766819, 0.02257726527750492, -0.06945307552814484, 0.02253420278429985, -0.07302714884281158, 0.10684952139854431, 0.013046125881373882, -0.04880954325199127, 0.06828659772872925, -0.07110936939716339, -0.12199673801660538, 0.09270134568214417, 0.08883741497993469, 0.07304146885871887, 0.014160513877868652, 0.07212003320455551, 0.056592851877212524, -0.13282068073749542, 0.012440460734069347, -0.1159122884273529, -0.08142413198947906, 0.0739159882068634, -0.083466537296772, 0.05822005867958069, 0.09167928248643875, -0.10694748163223267, 0.019210591912269592], [0.056450050324201584, -0.059473320841789246, 0.05123264715075493, -0.3632923364639282, -0.10212095081806183, 0.06124270707368851, 0.10602060705423355, -0.15169347822666168, 0.10490892827510834, -0.058240607380867004, -0.14379478991031647, -0.07413735240697861, 0.1660083830356598, 0.018511002883315086, 0.022036908194422722, -0.04086025059223175, 0.07074827700853348, 0.032406605780124664, 0.05546407774090767, -0.07824733108282089, -0.08627884089946747, 0.026846561580896378, 0.10905305296182632, 0.054590847343206406, 0.01594526134431362, -0.0837288498878479, 0.1166662722826004, 0.05841828137636185, -0.10338695347309113, 0.06614797562360764, -0.09677855670452118, -0.013175983913242817, -0.039819106459617615, -0.11373765021562576, -0.048269473016262054, -0.07482787221670151, 0.06656783819198608, 0.03090563416481018, 0.032073769718408585, 0.051415685564279556, 0.013655534014105797, -0.13846831023693085, 0.028833182528614998, -0.066189706325531, 0.09858205914497375, 0.03923775255680084, 0.06607277691364288, -0.007652817294001579, 0.10767354816198349, 0.035648368299007416, -0.0656677782535553, -0.03582288697361946, -0.0795062780380249, -0.09396740794181824, 0.09775546938180923, -0.006673315539956093, 0.11420930176973343, -0.1255219280719757, -0.018592244014143944, -0.12891368567943573, 0.17957299947738647, 0.04202700033783913, 0.023563062772154808, -0.04861227795481682], [-0.050462305545806885, -0.08901883661746979, -0.11349508911371231, 0.057176291942596436, 0.026557087898254395, 0.04636552557349205, 0.06256857514381409, 0.11039716005325317, 0.05014427378773689, 0.07509815692901611, -0.07440091669559479, -0.07324860990047455, -0.08100618422031403, 0.03105534054338932, -0.11050424724817276, -0.06709511578083038, -0.07651405036449432, -0.09173764288425446, -0.052115533500909805, 0.04622555151581764, 0.09692908823490143, -0.05392074212431908, 0.002063362393528223, 0.059008076786994934, -0.07324886322021484, -0.007900006137788296, -0.11990679800510406, -0.12980733811855316, -0.12818875908851624, 0.011875676922500134, -0.11581973731517792, -0.08943592011928558, 0.03485725820064545, 0.03465975075960159, 0.057448651641607285, 0.10657662898302078, -0.1055314913392067, -0.09905635565519333, 0.10544075071811676, 0.022252006456255913, 0.06562230736017227, -0.11621897667646408, 0.0044790226966142654, -0.0717787817120552, -0.01521252654492855, 0.10893651843070984, -0.07588458806276321, 0.007559912744909525, -0.12036833167076111, -0.05274739861488342, 0.030790211632847786, -0.05745045840740204, -0.01828623190522194, 0.04099889099597931, -0.14051617681980133, 0.1354852020740509, -0.10705550014972687, -0.10381115227937698, -0.08560357987880707, -0.11580641567707062, 0.005282178521156311, -0.04223757982254028, 0.0006446879124268889, 0.06541315466165543], [0.00672416714951396, -0.11622364073991776, 0.11111309379339218, -0.3640020489692688, -0.1730511486530304, 0.09649773687124252, 0.13056787848472595, -0.16246144473552704, 0.1999993920326233, 0.043312784284353256, -0.16845497488975525, -0.11813104152679443, 0.25375479459762573, 0.2211921662092209, -0.08902598917484283, -0.08106300234794617, -0.12952114641666412, 0.11725733429193497, -0.07617215812206268, -0.043574586510658264, 0.010053381323814392, -0.06102803349494934, -0.04146810993552208, -0.09779816120862961, -0.23367774486541748, 0.08831330388784409, -0.0051346272230148315, -0.07073399424552917, -0.0011421232484281063, -0.027315912768244743, -0.007407537195831537, -0.11127012968063354, 0.07968359440565109, -0.10839586704969406, 0.114205002784729, 0.05200302600860596, 0.11840774863958359, -0.008579793386161327, 0.005744867026805878, -0.139914408326149, 0.10079053789377213, -0.08728472888469696, 0.01374875009059906, 0.09273724257946014, 0.11699517071247101, -0.04317313805222511, -0.11210314929485321, 0.08962184935808182, 0.27325010299682617, -0.025551317259669304, -0.000535761471837759, 0.1792980581521988, 0.17558056116104126, 0.08307747542858124, 0.10448450595140457, -0.26631924510002136, 0.05860811099410057, -0.27638086676597595, 0.1526394635438919, 0.04745683819055557, 0.3286938965320587, -0.20616929233074188, -0.1199888214468956, -0.02382524125277996], [0.11530549079179764, 0.14074857532978058, 0.12166409194469452, 0.4866146445274353, 0.1572028249502182, 0.11434025317430496, -0.02145085483789444, -0.18198898434638977, -0.20361991226673126, -0.016451120376586914, 0.0627727136015892, -0.12462928146123886, 0.30001118779182434, 0.3607270121574402, -0.0020575199741870165, -0.08329653739929199, 0.16382598876953125, 0.09539575129747391, 0.16424989700317383, -0.06003270670771599, -0.026105061173439026, -0.0034898226149380207, 0.07810352742671967, 0.04543863981962204, 0.0354708768427372, 0.08594752848148346, -0.06886868178844452, 0.10749152302742004, -0.0465562641620636, -0.09459170699119568, -0.05947399511933327, 0.003262727754190564, 0.020805131644010544, -0.14922383427619934, 0.060041479766368866, -0.07501828670501709, -0.14352980256080627, 0.11159908771514893, 0.29864701628685, 0.17161555588245392, 0.1130734384059906, 0.21292822062969208, 0.0893692821264267, 0.08898983150720596, 0.01391565054655075, 0.14973442256450653, 0.08281070739030838, -0.14184215664863586, 0.07950808107852936, -0.12351889908313751, 0.1281747817993164, 0.17581167817115784, -0.0722067728638649, -0.049511805176734924, -0.16318903863430023, -0.08399331569671631, 0.06332278996706009, 0.15185712277889252, -0.0838855504989624, 0.09994850307703018, 0.3012100160121918, 0.04936617240309715, 0.06651563942432404, 0.03374205902218819], [0.0586155466735363, 0.2152205854654312, -0.042954977601766586, 0.31178322434425354, 0.31548669934272766, -0.0506243035197258, -0.1351725459098816, 0.04245247319340706, -0.12817229330539703, -0.2115907222032547, 0.1847076267004013, 0.07327666133642197, 0.3772225081920624, 0.23802559077739716, 0.17176014184951782, 0.07825672626495361, 0.01777149923145771, 0.013540086336433887, 0.09641733020544052, 0.15960189700126648, 0.024251163005828857, 0.02962339296936989, 0.11877716332674026, 0.17152881622314453, 0.2359609156847, 0.12769557535648346, -0.04334452748298645, 0.18353869020938873, 0.22009101510047913, -0.06145845353603363, -0.0701514184474945, 0.004204848315566778, 0.18576937913894653, 0.025642473250627518, 0.09829019755125046, -0.10549386590719223, -0.12009081244468689, 0.04300062730908394, 0.4034551680088043, 0.14486636221408844, 0.13173097372055054, 0.08268462121486664, 0.1843520700931549, 0.011681647971272469, 0.08238745480775833, 0.0924077108502388, 0.018717339262366295, -0.18611344695091248, 0.32519733905792236, 0.007080676965415478, 0.011100628413259983, 0.2966309189796448, -0.037362780421972275, -0.0014321357011795044, 0.07523614168167114, 0.01667187735438347, -0.010523471049964428, 0.04087953642010689, -0.251293420791626, 0.17560744285583496, 0.2872553765773773, 0.10744551569223404, -0.06234198808670044, 0.23091474175453186], [-0.02427578531205654, -0.1116979643702507, 0.10696231573820114, 0.11675578355789185, -0.07084628194570541, 0.05642944574356079, 0.03711647540330887, 0.08559286594390869, 0.047564681619405746, -0.04137460142374039, 0.05798948556184769, 0.013171017169952393, 0.0218447744846344, 0.1051299124956131, 0.039012610912323, -0.007092788815498352, -0.05478016659617424, 0.07835935056209564, -0.041441868990659714, -0.07440744340419769, 0.014664903283119202, 0.08648163825273514, 0.06290830671787262, 0.1031191498041153, -0.0892055332660675, 0.07441477477550507, 0.12494800984859467, -0.0518854558467865, 0.029525889083743095, -0.08298726379871368, -0.001712307333946228, 0.04278825223445892, -0.09245596081018448, 0.07047752290964127, -0.010032206773757935, -0.08552178740501404, -0.07283353060483932, 0.030151041224598885, -0.012469782494008541, -0.015283863991498947, -0.04887665435671806, -0.09880564361810684, -0.019128158688545227, 0.0931115373969078, 0.018438147380948067, -0.11640255153179169, 0.006637305021286011, -0.13015998899936676, -0.03804270923137665, -0.09217184782028198, -0.0018125808564946055, 0.06834563612937927, -0.08998509496450424, 0.02266286313533783, -0.12278672307729721, -0.06074720248579979, 0.07030792534351349, 0.022915495559573174, -0.08484626561403275, -0.07790444046258926, 0.09874138236045837, 0.08838950842618942, 0.06339704990386963, 0.004456177353858948], [-0.11780431121587753, 0.04652220755815506, -0.24170824885368347, 0.0423642098903656, -0.021345317363739014, 0.02320834994316101, -0.11856189370155334, 0.06879185885190964, -0.04275178536772728, 0.05869957432150841, 0.07640257477760315, 0.025042250752449036, -0.0007696409593336284, 0.27470362186431885, -0.09945076704025269, -0.1026928722858429, 0.030667871236801147, -0.11437152326107025, 0.07549114525318146, -0.08029810339212418, 0.051999762654304504, -0.05798058584332466, 0.09676289558410645, -0.004819448105990887, 0.004358109086751938, -0.06374798715114594, -0.04637931287288666, -0.07529998570680618, 0.11498390138149261, -0.09045575559139252, 0.0023664289619773626, -0.038936927914619446, 0.029078764840960503, -0.18543203175067902, -0.013961263000965118, 0.009280753321945667, 0.010059848427772522, 0.05126321688294411, 0.24810214340686798, 0.017900729551911354, -0.06030454859137535, -0.034312762320041656, 0.020954029634594917, -0.04544566944241524, 0.030975868925452232, 0.10332128405570984, 0.017542224377393723, 0.04870365560054779, 0.07488289475440979, -0.03241150081157684, -0.07182805240154266, 0.11986681818962097, -0.1039966344833374, 0.03598560392856598, -0.06332852691411972, -0.03552306443452835, 0.00854920782148838, 0.2885972857475281, -0.1618611067533493, 0.2096555531024933, 0.24797175824642181, 0.11536113917827606, 0.06638054549694061, 0.27382880449295044], [-0.020909255370497704, 0.2329307347536087, 0.04380212724208832, -0.14649367332458496, -0.1692984700202942, 0.08764784038066864, 0.058969348669052124, -0.41212648153305054, 0.020574256777763367, -0.029181726276874542, -0.02325236052274704, -0.2548566460609436, 0.1572912037372589, 0.4376879632472992, -0.010114118456840515, -0.07637427747249603, -0.11066257208585739, -0.10979324579238892, 0.03031759336590767, -0.05842055380344391, -0.07072462141513824, -0.07109066843986511, -0.01564815081655979, 0.11758438497781754, 0.047183893620967865, 0.004301422741264105, -0.07885262370109558, 0.05181422084569931, -0.1139783188700676, 0.1054888665676117, -0.05773606523871422, 0.1170632466673851, -0.07575080543756485, -0.18604345619678497, 0.09909101575613022, 0.06815003603696823, -0.06763958930969238, -0.06531061232089996, 0.07519640028476715, -0.020625285804271698, 0.09615828096866608, 0.1483888179063797, 0.14519263803958893, -0.07250143587589264, 0.07303502410650253, -0.033353570848703384, 0.09396594017744064, 0.12713660299777985, 0.17645204067230225, -0.023145485669374466, 0.03458639606833458, 0.18227173388004303, 0.08601987361907959, 0.014836147427558899, -0.13102805614471436, -0.04312533885240555, 0.06469957530498505, -0.07598359882831573, 0.062460727989673615, 0.08742555230855942, 0.22328884899616241, -0.17458312213420868, -0.00598806282505393, 0.1025976911187172], [0.028015892952680588, 0.21796181797981262, -0.25720342993736267, -0.08832959830760956, 0.10589572787284851, 0.0021065901964902878, -0.08156843483448029, 0.2356521487236023, -0.085799440741539, 0.001019125571474433, 0.3420005738735199, -0.01829475164413452, 0.2731909155845642, 0.33779484033584595, -0.059791579842567444, -0.06642046570777893, -0.04657597839832306, -0.3037780225276947, 0.0593203641474247, 0.04029178246855736, 0.005758792161941528, 0.09428603947162628, 0.025715725496411324, -0.03430025652050972, -0.13708330690860748, 0.04638977348804474, 0.05789303779602051, 0.17783495783805847, 0.04147445410490036, 0.05769449099898338, 0.10517928749322891, -0.048725903034210205, -0.059827517718076706, -0.05724930018186569, 0.06549318879842758, 0.06734445691108704, -0.03410538658499718, 0.006301626563072205, 0.2922646701335907, 0.019636990502476692, -0.3641600012779236, 0.17280316352844238, 0.21411755681037903, -0.5270887017250061, 0.08357206732034683, 0.004217475652694702, -0.003366607939824462, -0.112877756357193, 0.09332539141178131, 0.09607406705617905, 0.07846292853355408, 0.3115769922733307, -0.22115007042884827, -0.04329763352870941, -0.06853830069303513, -0.20170161128044128, 0.11669343709945679, 0.3934589624404907, 0.014292752370238304, 0.5921183228492737, 0.4188978970050812, 0.031368598341941833, -0.023304063826799393, 0.33418649435043335]], "layer2_bias": [0.10373937338590622, 0.023386076092720032, 0.02749454602599144, 0.07067763805389404, 0.009208421222865582, 0.03598558157682419, 0.06321509927511215, 0.06733780354261398, -0.057678356766700745, 0.08913161605596542, 0.10734239965677261, 0.03526877239346504, 0.0631723403930664, 0.06820264458656311, 0.2223682701587677, 0.0042147040367126465, -0.16369864344596863, 0.22691532969474792, -0.09961414337158203, -0.13014423847198486, 0.10273952782154083, -0.0208195298910141, 0.005771656055003405, 0.193966343998909, -0.031305983662605286, 0.08549749851226807, -0.06290191411972046, 0.0098038325086236, -0.04743117094039917, 0.05600232258439064, -0.07886148989200592, -0.2807571589946747, 0.1057475209236145, -0.03770282864570618, 0.0460456907749176, -0.040811434388160706, -0.07229413092136383, 0.1272825300693512, -0.002971234731376171, -0.04583372175693512, 0.012604673393070698, -0.11677294969558716, -0.08195984363555908, 0.16941991448402405, 0.14237764477729797, 0.09495875239372253, 0.09846928715705872, -0.07091208547353745, -0.05638131871819496, 0.0280306413769722, 0.07424601912498474, 0.0759713351726532, 0.08453750610351562, -0.1672852337360382, 0.02035389095544815, 0.1661347597837448, 0.0520014651119709, 0.15352605283260345, -0.0318036712706089, -0.04847322776913643, -0.08779764920473099, 0.009705430828034878, 0.09779699891805649, -0.08604441583156586], "layer3_weight": [[0.17560617625713348, 0.026021281257271767, 0.023746948689222336, 0.051604263484478, -0.1302337348461151, 0.195367693901062, -0.09562129527330399, 0.07634513080120087, 0.05795012786984444, -0.13214507699012756, 0.24970386922359467, -0.13668027520179749, 0.020839732140302658, -0.030391095206141472, -0.2115318477153778, -0.07964237034320831, 0.0025739322882145643, 0.08133289217948914, -0.017280666157603264, 0.16383278369903564, -0.1869424432516098, 0.03190777823328972, 0.06097206845879555, 0.17832237482070923, 0.13398681581020355, -0.22611737251281738, 0.09217299520969391, 0.06278064101934433, 0.059684671461582184, -0.07468628138303757, 0.15021945536136627, -0.005742406472563744, 0.070762999355793, -0.09991675615310669, -0.03524499759078026, -0.07409970462322235, -0.058722496032714844, -0.2823883891105652, -0.10954985022544861, 0.06910334527492523, 0.08115744590759277, -0.08123421669006348, 0.01505252718925476, 0.011417113244533539, -0.07485983520746231, 0.16185292601585388, 0.0061150589026510715, 0.07702725380659103, -0.2389373928308487, -0.14088864624500275, 0.04133782535791397, 0.15567351877689362, -0.021122261881828308, 0.213983416557312, 0.033692874014377594, -0.12575429677963257, 0.11021523922681808, -0.07439093291759491, 0.012275436893105507, 0.056254539638757706, -0.06766863167285919, -0.03206957131624222, -0.11844653636217117, -0.19258816540241241], [-0.13448111712932587, -0.01155730802565813, 0.1421649158000946, 0.08833044022321701, 0.12481918931007385, -0.20638655126094818, 0.02798391878604889, 0.08092295378446579, 0.1699085384607315, -0.06736485660076141, -0.2320203334093094, -0.1271723359823227, 0.1325744092464447, -0.16346436738967896, 0.13885027170181274, -0.06865082681179047, -0.13111265003681183, 0.04033111035823822, -0.07201175391674042, -0.013754628598690033, -0.01799662783741951, 0.06764456629753113, -0.1644703894853592, -0.1955544352531433, -0.1456577330827713, -0.027558986097574234, 0.06123954802751541, -0.0857635885477066, 0.039732299745082855, 0.06752937287092209, 0.09613887220621109, -0.04101688414812088, 0.11582465469837189, -0.03575208783149719, 0.10173172503709793, 0.006978839635848999, 0.10209283232688904, 0.3532012104988098, 0.04070021212100983, -0.08780646324157715, -0.11037031561136246, -0.11815307289361954, 0.08599549531936646, -0.11981870979070663, 0.10777141898870468, 0.0316864438354969, 0.10674580931663513, 0.08506020158529282, 0.05688123404979706, 0.16683173179626465, -0.0671272948384285, -0.09657883644104004, 0.02466844953596592, -0.20205828547477722, -0.11337552219629288, -0.03957943990826607, 0.03479331359267235, 0.13214054703712463, 0.06618969142436981, -0.051652126014232635, -0.024080656468868256, 0.060582421720027924, -0.03438810259103775, 0.12968437373638153], [0.2669835686683655, -0.2520737648010254, 0.13472944498062134, 0.07009061425924301, 0.24668917059898376, -0.2954985201358795, 0.08086033910512924, -0.05723711848258972, -0.17783772945404053, 0.19209890067577362, -0.2260071486234665, -0.0301531832665205, -0.2496904581785202, 0.1931644231081009, -0.2693403959274292, 0.032231107354164124, 0.27972832322120667, -0.19190733134746552, 0.20191119611263275, 0.06476860493421555, 0.2018614560365677, -0.03606954216957092, 0.10175884515047073, -0.28718605637550354, 0.20519691705703735, 0.30804622173309326, 0.09999442100524902, -0.21459470689296722, 0.1705460399389267, 0.05885996297001839, 0.1538049280643463, 0.33280056715011597, -0.19650231301784515, -0.014993376098573208, -0.00798038113862276, 0.05702418088912964, -0.09671828150749207, 0.3255560100078583, -0.21962912380695343, 0.02463531494140625, 0.17877426743507385, 0.20182302594184875, -0.018576502799987793, -0.24380157887935638, -0.1313921958208084, 0.16510583460330963, -0.27141642570495605, -0.008841423317790031, 0.1685626208782196, -0.18896222114562988, -0.09812476485967636, -0.22148072719573975, -0.0661701112985611, 0.09851457178592682, 0.026570839807391167, -0.1106031984090805, 0.09815520793199539, -0.12631285190582275, 0.22168172895908356, 0.2407875806093216, 0.02692994475364685, 0.1478268802165985, 0.14704853296279907, 0.12759128212928772]], "layer3_bias": [0.044970422983169556, 0.07288399338722229, -0.24170370399951935]}
